0.7 -1.3 5
-1 -0.4 7
0.3 0 4
-1.2 0.7 8
0.7 -0 5
0.3 0.9 6
0 -1.9 8
1.6 -1.7 8
1.2 1 5
1.9 1.9 8
49.4294 49.1903 49.9858 48.7787 49.9712  49.637  -10000  -10000 49.3643  -10000
 49.972  49.378 49.6381 49.1849 49.6229 49.7699  -10000  -10000 49.8594  -10000
49.6345 49.4108 49.6994 49.3755 49.8003 49.7086  -10000  -10000 49.6789  -10000
49.7485 49.5347 49.6601 49.4103 49.6865 49.7257  -10000  -10000 49.7355  -10000
49.6742 49.5352 49.6795  49.533 49.7159 49.6949  -10000  -10000 49.6912  -10000
49.6974 49.6047 49.6667 49.5352 49.6865 49.6955  -10000  -10000 49.6967  -10000
49.6769  49.601 49.6737 49.6038 49.6889 49.6836  -10000  -10000 49.6831  -10000
49.6813 49.6379 49.6685  49.601 49.6798  49.682  -10000  -10000 49.6821  -10000
49.6742 49.6348 49.6716 49.6374 49.6785  49.677  -10000  -10000 49.6768  -10000
 49.675 49.6541 49.6691 49.6349 49.6751 49.6757  -10000  -10000 49.6757  -10000
49.6721  49.652 49.6706 49.6538 49.6739 49.6734  -10000  -10000 49.6733  -10000
49.6723  49.662 49.6694 49.6521 49.6724 49.6726  -10000  -10000 49.6726  -10000
49.6709 49.6608 49.6701 49.6619 49.6718 49.6715  -10000  -10000 49.6715  -10000
 49.671 49.6659 49.6695 49.6608 49.6711 49.6711  -10000  -10000 49.6711  -10000
49.6703 49.6652 49.6699 49.6658 49.6707 49.6706  -10000  -10000 49.6706  -10000
49.6703 49.6678 49.6696 49.6652 49.6704 49.6704  -10000  -10000 49.6704  -10000
  49.67 49.6674 49.6698 49.6678 49.6702 49.6701  -10000  -10000 49.6701  -10000
  49.67 49.6687 49.6696 49.6674   49.67   49.67  -10000  -10000   49.67  -10000
49.6698 49.6685 49.6697 49.6687 49.6699 49.6699  -10000  -10000 49.6699  -10000
49.6698 49.6692 49.6696 49.6685 49.6698 49.6698  -10000  -10000 49.6698  -10000
49.6697 49.6691 49.6697 49.6692 49.6698 49.6698  -10000  -10000 49.6698  -10000
49.6697 49.6694 49.6696 49.6691 49.6697 49.6697  -10000  -10000 49.6697  -10000
49.6697 49.6694 49.6697 49.6694 49.6697 49.6697  -10000  -10000 49.6697  -10000
49.6697 49.6695 49.6696 49.6694 49.6697 49.6697  -10000  -10000 49.6697  -10000
49.6697 49.6695 49.6697 49.6695 49.6697 49.6697  -10000  -10000 49.6697  -10000
49.6697 49.6696 49.6697 49.6695 49.6697 49.6697  -10000  -10000 49.6697  -10000
49.6697 49.6696 49.6697 49.6696 49.6697 49.6697  -10000  -10000 49.6697  -10000
49.6697 49.6696 49.6697 49.6696 49.6697 49.6697 49.6697 49.6697 49.6697 49.6697
