0.7 -1.3 5
-1 -0.4 7
0.3 0 4
-1.2 0.7 8
0.7 -0 5
0.3 0.9 6
0 -1.9 8
1.6 -1.7 8
1.2 1 5
1.9 1.9 8
49.4294 49.1903 49.9858 48.7787 49.9712  49.637  -10000  -10000 49.3643  -10000
49.4358 49.1945 49.6867 48.7814 49.9336 49.6428  -10000  -10000 49.3722  -10000
49.4402 49.1954 49.5773 48.7841 49.8927 49.6437  -10000  -10000 49.3782  -10000
49.4436 49.1951 49.5342 48.7868 49.8535 49.6425  -10000  -10000 49.3833  -10000
49.4466 49.1943 49.5146 48.7895 49.8174 49.6403  -10000  -10000 49.3879  -10000
49.4491 49.1934 49.5035 48.7922 49.7846 49.6375  -10000  -10000 49.3921  -10000
49.4514 49.1924 49.4957 48.7949  49.755 49.6342  -10000  -10000  49.396  -10000
49.4534 49.1914 49.4894 48.7975 49.7283 49.6306  -10000  -10000 49.3997  -10000
49.4553 49.1903 49.4838 48.8001 49.7043 49.6268  -10000  -10000  49.403  -10000
49.4569 49.1892 49.4788 48.8027 49.6825 49.6227  -10000  -10000 49.4062  -10000
49.4583 49.1882 49.4741 48.8052 49.6629 49.6185  -10000  -10000 49.4092  -10000
49.4596 49.1871 49.4698 48.8077 49.6452 49.6141  -10000  -10000 49.4119  -10000
49.4608 49.1861 49.4658 48.8102 49.6292 49.6097  -10000  -10000 49.4145  -10000
49.4618  49.185 49.4621 48.8127 49.6147 49.6052  -10000  -10000 49.4169  -10000
49.4627  49.184 49.4587 48.8152 49.6016 49.6007  -10000  -10000 49.4192  -10000
49.4635 49.1829 49.4554 48.8176 49.5897 49.5961  -10000  -10000 49.4213  -10000
49.4641 49.1819 49.4524   48.82 49.5789 49.5916  -10000  -10000 49.4232  -10000
49.4647 49.1809 49.4496 48.8224  49.569 49.5871  -10000  -10000 49.4251  -10000
49.4653 49.1799 49.4469 48.8248 49.5601 49.5826  -10000  -10000 49.4268  -10000
49.4657  49.179 49.4444 48.8271 49.5519 49.5782  -10000  -10000 49.4284  -10000
49.4661  49.178  49.442 48.8294 49.5445 49.5739  -10000  -10000 49.4299  -10000
49.4664 49.1771 49.4397 48.8317 49.5377 49.5696  -10000  -10000 49.4314  -10000
49.4667 49.1762 49.4376  48.834 49.5314 49.5653  -10000  -10000 49.4327  -10000
49.4669 49.1753 49.4356 48.8363 49.5257 49.5612  -10000  -10000 49.4339  -10000
 49.467 49.1745 49.4337 48.8385 49.5205 49.5571  -10000  -10000 49.4351  -10000
49.4672 49.1736 49.4319 48.8407 49.5156 49.5532  -10000  -10000 49.4361  -10000
49.4672 49.1728 49.4301 48.8429 49.5112 49.5493  -10000  -10000 49.4371  -10000
49.4673  49.172 49.4285 48.8451  49.507 49.5455  -10000  -10000 49.4381  -10000
49.4673 49.1712 49.4269 48.8473 49.5032 49.5418  -10000  -10000  49.439  -10000
49.4673 49.1705 49.4254 48.8494 49.4997 49.5382  -10000  -10000 49.4398  -10000
49.4672 49.1698 49.4239 48.8515 49.4964 49.5347  -10000  -10000 49.4405  -10000
49.4671 49.1691 49.4225 48.8536 49.4934 49.5313  -10000  -10000 49.4412  -10000
 49.467 49.1684 49.4212 48.8557 49.4905 49.5279  -10000  -10000 49.4419  -10000
49.4669 49.1677 49.4199 48.8578 49.4878 49.5247  -10000  -10000 49.4425  -10000
49.4667 49.1671 49.4186 48.8598 49.4854 49.5215  -10000  -10000  49.443  -10000
49.4666 49.1665 49.4174 48.8618  49.483 49.5185  -10000  -10000 49.4435  -10000
49.4664 49.1659 49.4163 48.8638 49.4808 49.5155  -10000  -10000  49.444  -10000
49.4662 49.1653 49.4151 48.8658 49.4787 49.5126  -10000  -10000 49.4444  -10000
49.4659 49.1648 49.4141 48.8678 49.4768 49.5098  -10000  -10000 49.4448  -10000
49.4657 49.1643  49.413 48.8698 49.4749 49.5071  -10000  -10000 49.4451  -10000
49.4654 49.1638  49.412 48.8717 49.4732 49.5044  -10000  -10000 49.4454  -10000
49.4652 49.1633  49.411 48.8736 49.4715 49.5019  -10000  -10000 49.4457  -10000
49.4649 49.1628   49.41 48.8755 49.4699 49.4994  -10000  -10000  49.446  -10000
49.4646 49.1624 49.4091 48.8774 49.4684  49.497  -10000  -10000 49.4462  -10000
49.4643  49.162 49.4082 48.8793 49.4669 49.4946  -10000  -10000 49.4464  -10000
 49.464 49.1616 49.4073 48.8812 49.4655 49.4923  -10000  -10000 49.4465  -10000
49.4637 49.1612 49.4065  48.883 49.4642 49.4901  -10000  -10000 49.4467  -10000
49.4633 49.1608 49.4056 48.8849 49.4629 49.4879  -10000  -10000 49.4468  -10000
 49.463 49.1605 49.4048 48.8867 49.4617 49.4859  -10000  -10000 49.4468  -10000
49.4626 49.1602  49.404 48.8885 49.4605 49.4838  -10000  -10000 49.4469  -10000
49.4623 49.1599 49.4032 48.8903 49.4594 49.4819  -10000  -10000 49.4469  -10000
49.4619 49.1596 49.4025 48.8921 49.4583 49.4799  -10000  -10000  49.447  -10000
49.4616 49.1593 49.4018 48.8938 49.4572 49.4781  -10000  -10000  49.447  -10000
49.4612 49.1591  49.401 48.8956 49.4562 49.4763  -10000  -10000 49.4469  -10000
49.4608 49.1588 49.4003 48.8973 49.4552 49.4745  -10000  -10000 49.4469  -10000
49.4604 49.1586 49.3996  48.899 49.4542 49.4728  -10000  -10000 49.4469  -10000
  49.46 49.1584  49.399 48.9008 49.4532 49.4712  -10000  -10000 49.4468  -10000
49.4596 49.1582 49.3983 48.9025 49.4523 49.4696  -10000  -10000 49.4467  -10000
49.4592  49.158 49.3976 48.9041 49.4514  49.468  -10000  -10000 49.4466  -10000
49.4588 49.1579  49.397 48.9058 49.4505 49.4665  -10000  -10000 49.4465  -10000
49.4584 49.1577 49.3964 48.9075 49.4497  49.465  -10000  -10000 49.4463  -10000
 49.458 49.1576 49.3958 48.9091 49.4488 49.4635  -10000  -10000 49.4462  -10000
49.4576 49.1575 49.3952 48.9108  49.448 49.4621  -10000  -10000  49.446  -10000
49.4572 49.1574 49.3946 48.9124 49.4472 49.4608  -10000  -10000 49.4459  -10000
49.4567 49.1573  49.394  48.914 49.4465 49.4594  -10000  -10000 49.4457  -10000
49.4563 49.1572 49.3934 48.9156 49.4457 49.4581  -10000  -10000 49.4455  -10000
49.4559 49.1572 49.3929 48.9172 49.4449 49.4569  -10000  -10000 49.4453  -10000
49.4554 49.1571 49.3923 48.9188 49.4442 49.4556  -10000  -10000 49.4451  -10000
 49.455 49.1571 49.3918 48.9204 49.4435 49.4544  -10000  -10000 49.4448  -10000
49.4546 49.1571 49.3913 48.9219 49.4428 49.4533  -10000  -10000 49.4446  -10000
49.4541 49.1571 49.3908 48.9235 49.4421 49.4521  -10000  -10000 49.4444  -10000
49.4537 49.1571 49.3902  48.925 49.4414  49.451  -10000  -10000 49.4441  -10000
49.4533 49.1571 49.3897 48.9266 49.4407 49.4499  -10000  -10000 49.4439  -10000
49.4528 49.1571 49.3892 48.9281   49.44 49.4489  -10000  -10000 49.4436  -10000
49.4524 49.1571 49.3888 48.9296 49.4394 49.4478  -10000  -10000 49.4433  -10000
49.4519 49.1572 49.3883 48.9311 49.4387 49.4468  -10000  -10000  49.443  -10000
49.4515 49.1572 49.3878 48.9326 49.4381 49.4458  -10000  -10000 49.4427  -10000
 49.451 49.1573 49.3873 48.9341 49.4375 49.4449  -10000  -10000 49.4424  -10000
49.4506 49.1574 49.3869 48.9355 49.4368 49.4439  -10000  -10000 49.4421  -10000
49.4501 49.1575 49.3864  48.937 49.4362  49.443  -10000  -10000 49.4418  -10000
49.4497 49.1576  49.386 48.9385 49.4356 49.4421  -10000  -10000 49.4415  -10000
49.4492 49.1577 49.3855 48.9399  49.435 49.4412  -10000  -10000 49.4412  -10000
49.4487 49.1578 49.3851 48.9413 49.4344 49.4403  -10000  -10000 49.4409  -10000
49.4483 49.1579 49.3847 48.9428 49.4339 49.4395  -10000  -10000 49.4406  -10000
49.4478  49.158 49.3843 48.9442 49.4333 49.4386  -10000  -10000 49.4402  -10000
49.4474 49.1582 49.3838 48.9456 49.4327 49.4378  -10000  -10000 49.4399  -10000
49.4469 49.1583 49.3834  48.947 49.4322  49.437  -10000  -10000 49.4395  -10000
49.4465 49.1584  49.383 48.9484 49.4316 49.4362  -10000  -10000 49.4392  -10000
 49.446 49.1586 49.3826 48.9498 49.4311 49.4355  -10000  -10000 49.4388  -10000
49.4455 49.1588 49.3822 48.9512 49.4305 49.4347  -10000  -10000 49.4385  -10000
49.4451 49.1589 49.3818 48.9525   49.43  49.434  -10000  -10000 49.4381  -10000
49.4446 49.1591 49.3814 48.9539 49.4294 49.4332  -10000  -10000 49.4378  -10000
49.4442 49.1593 49.3811 48.9552 49.4289 49.4325  -10000  -10000 49.4374  -10000
49.4437 49.1595 49.3807 48.9566 49.4284 49.4318  -10000  -10000 49.4371  -10000
49.4433 49.1597 49.3803 48.9579 49.4279 49.4311  -10000  -10000 49.4367  -10000
49.4428 49.1599 49.3799 48.9593 49.4273 49.4304  -10000  -10000 49.4363  -10000
49.4423 49.1601 49.3796 48.9606 49.4268 49.4298  -10000  -10000 49.4359  -10000
49.4419 49.1603 49.3792 48.9619 49.4263 49.4291  -10000  -10000 49.4356  -10000
49.4414 49.1606 49.3788 48.9632 49.4258 49.4284  -10000  -10000 49.4352  -10000
 49.441 49.1608 49.3785 48.9645 49.4253 49.4278  -10000  -10000 49.4348  -10000
49.4405  49.161 49.3781 48.9658 49.4248 49.4272  -10000  -10000 49.4344  -10000
49.4401 49.1613 49.3778 48.9671 49.4244 49.4266  -10000  -10000 49.4341  -10000
49.4396 49.1615 49.3775 48.9684 49.4239 49.4259  -10000  -10000 49.4337  -10000
49.4391 49.1618 49.3771 48.9697 49.4234 49.4253  -10000  -10000 49.4333  -10000
49.4387  49.162 49.3768 48.9709 49.4229 49.4247  -10000  -10000 49.4329  -10000
49.4382 49.1623 49.3764 48.9722 49.4224 49.4242  -10000  -10000 49.4325  -10000
49.4378 49.1625 49.3761 48.9734  49.422 49.4236  -10000  -10000 49.4321  -10000
49.4373 49.1628 49.3758 48.9747 49.4215  49.423  -10000  -10000 49.4317  -10000
49.4369 49.1631 49.3755 48.9759  49.421 49.4225  -10000  -10000 49.4313  -10000
49.4364 49.1634 49.3751 48.9772 49.4206 49.4219  -10000  -10000 49.4309  -10000
 49.436 49.1636 49.3748 48.9784 49.4201 49.4213  -10000  -10000 49.4306  -10000
49.4355 49.1639 49.3745 48.9796 49.4197 49.4208  -10000  -10000 49.4302  -10000
49.4351 49.1642 49.3742 48.9808 49.4192 49.4203  -10000  -10000 49.4298  -10000
49.4346 49.1645 49.3739  48.982 49.4188 49.4197  -10000  -10000 49.4294  -10000
49.4342 49.1648 49.3736 48.9832 49.4183 49.4192  -10000  -10000  49.429  -10000
49.4337 49.1651 49.3733 48.9844 49.4179 49.4187  -10000  -10000 49.4286  -10000
49.4333 49.1654  49.373 48.9856 49.4174 49.4182  -10000  -10000 49.4282  -10000
49.4328 49.1657 49.3727 48.9868  49.417 49.4177  -10000  -10000 49.4278  -10000
49.4324  49.166 49.3724  48.988 49.4166 49.4172  -10000  -10000 49.4274  -10000
 49.432 49.1663 49.3721 48.9892 49.4161 49.4167  -10000  -10000  49.427  -10000
49.4315 49.1666 49.3718 48.9903 49.4157 49.4162  -10000  -10000 49.4266  -10000
49.4311 49.1669 49.3715 48.9915 49.4153 49.4157  -10000  -10000 49.4262  -10000
49.4306 49.1673 49.3712 48.9927 49.4148 49.4152  -10000  -10000 49.4258  -10000
49.4302 49.1676 49.3709 48.9938 49.4144 49.4148  -10000  -10000 49.4254  -10000
49.4298 49.1679 49.3706  48.995  49.414 49.4143  -10000  -10000  49.425  -10000
49.4293 49.1682 49.3703 48.9961 49.4136 49.4138  -10000  -10000 49.4246  -10000
49.4289 49.1686 49.3701 48.9972 49.4132 49.4133  -10000  -10000 49.4242  -10000
49.4284 49.1689 49.3698 48.9984 49.4128 49.4129  -10000  -10000 49.4238  -10000
 49.428 49.1692 49.3695 48.9995 49.4123 49.4124  -10000  -10000 49.4234  -10000
49.4276 49.1696 49.3692 49.0006 49.4119  49.412  -10000  -10000  49.423  -10000
49.4271 49.1699  49.369 49.0017 49.4115 49.4115  -10000  -10000 49.4226  -10000
49.4267 49.1702 49.3687 49.0028 49.4111 49.4111  -10000  -10000 49.4222  -10000
49.4263 49.1706 49.3684 49.0039 49.4107 49.4107  -10000  -10000 49.4218  -10000
49.4259 49.1709 49.3682  49.005 49.4103 49.4102  -10000  -10000 49.4214  -10000
49.4254 49.1713 49.3679 49.0061 49.4099 49.4098  -10000  -10000  49.421  -10000
 49.425 49.1716 49.3676 49.0072 49.4095 49.4094  -10000  -10000 49.4206  -10000
49.4246 49.1719 49.3674 49.0083 49.4091 49.4089  -10000  -10000 49.4202  -10000
49.4241 49.1723 49.3671 49.0094 49.4087 49.4085  -10000  -10000 49.4199  -10000
49.4237 49.1726 49.3669 49.0105 49.4083 49.4081  -10000  -10000 49.4195  -10000
49.4233  49.173 49.3666 49.0115 49.4079 49.4077  -10000  -10000 49.4191  -10000
49.4229 49.1733 49.3663 49.0126 49.4076 49.4073  -10000  -10000 49.4187  -10000
49.4225 49.1737 49.3661 49.0137 49.4072 49.4068  -10000  -10000 49.4183  -10000
 49.422 49.1741 49.3658 49.0147 49.4068 49.4064  -10000  -10000 49.4179  -10000
49.4216 49.1744 49.3656 49.0158 49.4064  49.406  -10000  -10000 49.4175  -10000
49.4212 49.1748 49.3653 49.0168  49.406 49.4056  -10000  -10000 49.4171  -10000
49.4208 49.1751 49.3651 49.0179 49.4056 49.4052  -10000  -10000 49.4167  -10000
49.4204 49.1755 49.3648 49.0189 49.4053 49.4048  -10000  -10000 49.4163  -10000
  49.42 49.1758 49.3646 49.0199 49.4049 49.4044  -10000  -10000  49.416  -10000
49.4196 49.1762 49.3644  49.021 49.4045  49.404  -10000  -10000 49.4156  -10000
49.4191 49.1766 49.3641  49.022 49.4041 49.4037  -10000  -10000 49.4152  -10000
49.4187 49.1769 49.3639  49.023 49.4038 49.4033  -10000  -10000 49.4148  -10000
49.4183 49.1773 49.3636  49.024 49.4034 49.4029  -10000  -10000 49.4144  -10000
49.4179 49.1776 49.3634  49.025  49.403 49.4025  -10000  -10000  49.414  -10000
49.4175  49.178 49.3632  49.026 49.4027 49.4021  -10000  -10000 49.4136  -10000
49.4171 49.1784 49.3629  49.027 49.4023 49.4017  -10000  -10000 49.4133  -10000
49.4167 49.1787 49.3627  49.028 49.4019 49.4014  -10000  -10000 49.4129  -10000
49.4163 49.1791 49.3625  49.029 49.4016  49.401  -10000  -10000 49.4125  -10000
49.4159 49.1795 49.3622   49.03 49.4012 49.4006  -10000  -10000 49.4121  -10000
49.4155 49.1798  49.362  49.031 49.4009 49.4003  -10000  -10000 49.4118  -10000
49.4151 49.1802 49.3618  49.032 49.4005 49.3999  -10000  -10000 49.4114  -10000
49.4147 49.1806 49.3615  49.033 49.4002 49.3995  -10000  -10000  49.411  -10000
49.4143 49.1809 49.3613 49.0339 49.3998 49.3992  -10000  -10000 49.4106  -10000
49.4139 49.1813 49.3611 49.0349 49.3994 49.3988  -10000  -10000 49.4102  -10000
49.4135 49.1816 49.3609 49.0359 49.3991 49.3984  -10000  -10000 49.4099  -10000
49.4131  49.182 49.3606 49.0368 49.3987 49.3981  -10000  -10000 49.4095  -10000
49.4127 49.1824 49.3604 49.0378 49.3984 49.3977  -10000  -10000 49.4091  -10000
49.4124 49.1827 49.3602 49.0387  49.398 49.3974  -10000  -10000 49.4088  -10000
 49.412 49.1831   49.36 49.0397 49.3977  49.397  -10000  -10000 49.4084  -10000
49.4116 49.1835 49.3598 49.0406 49.3974 49.3967  -10000  -10000  49.408  -10000
49.4112 49.1838 49.3595 49.0416  49.397 49.3963  -10000  -10000 49.4077  -10000
49.4108 49.1842 49.3593 49.0425 49.3967  49.396  -10000  -10000 49.4073  -10000
49.4104 49.1846 49.3591 49.0435 49.3963 49.3956  -10000  -10000 49.4069  -10000
  49.41 49.1849 49.3589 49.0444  49.396 49.3953  -10000  -10000 49.4066  -10000
49.4097 49.1853 49.3587 49.0453 49.3957 49.3949  -10000  -10000 49.4062  -10000
49.4093 49.1857 49.3585 49.0462 49.3953 49.3946  -10000  -10000 49.4058  -10000
49.4089  49.186 49.3583 49.0472  49.395 49.3942  -10000  -10000 49.4055  -10000
49.4085 49.1864  49.358 49.0481 49.3946 49.3939  -10000  -10000 49.4051  -10000
49.4081 49.1868 49.3578  49.049 49.3943 49.3936  -10000  -10000 49.4048  -10000
49.4078 49.1871 49.3576 49.0499  49.394 49.3932  -10000  -10000 49.4044  -10000
49.4074 49.1875 49.3574 49.0508 49.3937 49.3929  -10000  -10000  49.404  -10000
 49.407 49.1879 49.3572 49.0517 49.3933 49.3926  -10000  -10000 49.4037  -10000
49.4067 49.1882  49.357 49.0526  49.393 49.3922  -10000  -10000 49.4033  -10000
49.4063 49.1886 49.3568 49.0535 49.3927 49.3919  -10000  -10000  49.403  -10000
49.4059 49.1889 49.3566 49.0544 49.3923 49.3916  -10000  -10000 49.4026  -10000
49.4055 49.1893 49.3564 49.0553  49.392 49.3913  -10000  -10000 49.4023  -10000
49.4052 49.1897 49.3562 49.0562 49.3917 49.3909  -10000  -10000 49.4019  -10000
49.4048   49.19  49.356  49.057 49.3914 49.3906  -10000  -10000 49.4016  -10000
49.4045 49.1904 49.3558 49.0579 49.3911 49.3903  -10000  -10000 49.4012  -10000
49.4041 49.1908 49.3556 49.0588 49.3907   49.39  -10000  -10000 49.4009  -10000
49.4037 49.1911 49.3554 49.0597 49.3904 49.3897  -10000  -10000 49.4005  -10000
49.4034 49.1915 49.3552 49.0605 49.3901 49.3893  -10000  -10000 49.4002  -10000
 49.403 49.1918  49.355 49.0614 49.3898  49.389  -10000  -10000 49.3998  -10000
49.4027 49.1922 49.3548 49.0623 49.3895 49.3887  -10000  -10000 49.3995  -10000
49.4023 49.1925 49.3546 49.0631 49.3892 49.3884  -10000  -10000 49.3992  -10000
49.4019 49.1929 49.3544  49.064 49.3888 49.3881  -10000  -10000 49.3988  -10000
49.4016 49.1933 49.3542 49.0648 49.3885 49.3878  -10000  -10000 49.3985  -10000
49.4012 49.1936  49.354 49.0657 49.3882 49.3875  -10000  -10000 49.3981  -10000
49.4009  49.194 49.3538 49.0665 49.3879 49.3871  -10000  -10000 49.3978  -10000
49.4005 49.1943 49.3536 49.0674 49.3876 49.3868  -10000  -10000 49.3975  -10000
49.4002 49.1947 49.3535 49.0682 49.3873 49.3865  -10000  -10000 49.3971  -10000
49.3998  49.195 49.3533  49.069  49.387 49.3862  -10000  -10000 49.3968  -10000
49.3995 49.1954 49.3531 49.0699 49.3867 49.3859  -10000  -10000 49.3965  -10000
49.3991 49.1957 49.3529 49.0707 49.3864 49.3856  -10000  -10000 49.3961  -10000
49.3988 49.1961 49.3527 49.0715 49.3861 49.3853  -10000  -10000 49.3958  -10000
49.3984 49.1964 49.3525 49.0723 49.3858  49.385  -10000  -10000 49.3955  -10000
49.3981 49.1968 49.3523 49.0731 49.3855 49.3847  -10000  -10000 49.3951  -10000
49.3978 49.1971 49.3521  49.074 49.3852 49.3844  -10000  -10000 49.3948  -10000
49.3974 49.1975  49.352 49.0748 49.3849 49.3841  -10000  -10000 49.3945  -10000
49.3971 49.1978 49.3518 49.0756 49.3846 49.3838  -10000  -10000 49.3941  -10000
49.3967 49.1982 49.3516 49.0764 49.3843 49.3835  -10000  -10000 49.3938  -10000
49.3964 49.1985 49.3514 49.0772  49.384 49.3832  -10000  -10000 49.3935  -10000
49.3961 49.1989 49.3512  49.078 49.3837 49.3829  -10000  -10000 49.3932  -10000
49.3957 49.1992 49.3511 49.0788 49.3834 49.3827  -10000  -10000 49.3929  -10000
49.3954 49.1996 49.3509 49.0796 49.3831 49.3824  -10000  -10000 49.3925  -10000
49.3951 49.1999 49.3507 49.0804 49.3828 49.3821  -10000  -10000 49.3922  -10000
49.3947 49.2002 49.3505 49.0812 49.3825 49.3818  -10000  -10000 49.3919  -10000
49.3944 49.2006 49.3503  49.082 49.3823 49.3815  -10000  -10000 49.3916  -10000
49.3941 49.2009 49.3502 49.0827  49.382 49.3812  -10000  -10000 49.3913  -10000
49.3938 49.2013   49.35 49.0835 49.3817 49.3809  -10000  -10000 49.3909  -10000
49.3934 49.2016 49.3498 49.0843 49.3814 49.3806  -10000  -10000 49.3906  -10000
49.3931 49.2019 49.3496 49.0851 49.3811 49.3804  -10000  -10000 49.3903  -10000
49.3928 49.2023 49.3495 49.0858 49.3808 49.3801  -10000  -10000   49.39  -10000
49.3925 49.2026 49.3493 49.0866 49.3806 49.3798  -10000  -10000 49.3897  -10000
49.3921  49.203 49.3491 49.0874 49.3803 49.3795  -10000  -10000 49.3894  -10000
49.3918 49.2033 49.3489 49.0881   49.38 49.3792  -10000  -10000 49.3891  -10000
49.3915 49.2036 49.3488 49.0889 49.3797  49.379  -10000  -10000 49.3888  -10000
49.3912  49.204 49.3486 49.0897 49.3794 49.3787  -10000  -10000 49.3885  -10000
49.3909 49.2043 49.3484 49.0904 49.3792 49.3784  -10000  -10000 49.3881  -10000
49.3905 49.2046 49.3483 49.0912 49.3789 49.3781  -10000  -10000 49.3878  -10000
49.3902 49.2049 49.3481 49.0919 49.3786 49.3779  -10000  -10000 49.3875  -10000
49.3899 49.2053 49.3479 49.0927 49.3783 49.3776  -10000  -10000 49.3872  -10000
49.3896 49.2056 49.3478 49.0934 49.3781 49.3773  -10000  -10000 49.3869  -10000
49.3893 49.2059 49.3476 49.0941 49.3778 49.3771  -10000  -10000 49.3866  -10000
 49.389 49.2063 49.3474 49.0949 49.3775 49.3768  -10000  -10000 49.3863  -10000
49.3887 49.2066 49.3473 49.0956 49.3772 49.3765  -10000  -10000  49.386  -10000
49.3884 49.2069 49.3471 49.0963  49.377 49.3762  -10000  -10000 49.3857  -10000
49.3881 49.2072 49.3469 49.0971 49.3767  49.376  -10000  -10000 49.3854  -10000
49.3877 49.2076 49.3468 49.0978 49.3764 49.3757  -10000  -10000 49.3851  -10000
49.3874 49.2079 49.3466 49.0985 49.3762 49.3755  -10000  -10000 49.3848  -10000
49.3871 49.2082 49.3465 49.0992 49.3759 49.3752  -10000  -10000 49.3846  -10000
49.3868 49.2085 49.3463    49.1 49.3756 49.3749  -10000  -10000 49.3843  -10000
49.3865 49.2088 49.3461 49.1007 49.3754 49.3747  -10000  -10000  49.384  -10000
49.3862 49.2092  49.346 49.1014 49.3751 49.3744  -10000  -10000 49.3837  -10000
49.3859 49.2095 49.3458 49.1021 49.3749 49.3741  -10000  -10000 49.3834  -10000
49.3856 49.2098 49.3456 49.1028 49.3746 49.3739  -10000  -10000 49.3831  -10000
49.3853 49.2101 49.3455 49.1035 49.3743 49.3736  -10000  -10000 49.3828  -10000
 49.385 49.2104 49.3453 49.1042 49.3741 49.3734  -10000  -10000 49.3825  -10000
49.3847 49.2107 49.3452 49.1049 49.3738 49.3731  -10000  -10000 49.3822  -10000
49.3844 49.2111  49.345 49.1056 49.3736 49.3729  -10000  -10000  49.382  -10000
49.3842 49.2114 49.3449 49.1063 49.3733 49.3726  -10000  -10000 49.3817  -10000
49.3839 49.2117 49.3447  49.107 49.3731 49.3724  -10000  -10000 49.3814  -10000
49.3836  49.212 49.3446 49.1077 49.3728 49.3721  -10000  -10000 49.3811  -10000
49.3833 49.2123 49.3444 49.1084 49.3726 49.3719  -10000  -10000 49.3808  -10000
 49.383 49.2126 49.3442 49.1091 49.3723 49.3716  -10000  -10000 49.3805  -10000
49.3827 49.2129 49.3441 49.1098  49.372 49.3714  -10000  -10000 49.3803  -10000
49.3824 49.2132 49.3439 49.1104 49.3718 49.3711  -10000  -10000   49.38  -10000
49.3821 49.2135 49.3438 49.1111 49.3715 49.3709  -10000  -10000 49.3797  -10000
49.3818 49.2138 49.3436 49.1118 49.3713 49.3706  -10000  -10000 49.3794  -10000
49.3816 49.2141 49.3435 49.1125  49.371 49.3704  -10000  -10000 49.3792  -10000
49.3813 49.2144 49.3433 49.1131 49.3708 49.3701  -10000  -10000 49.3789  -10000
 49.381 49.2147 49.3432 49.1138 49.3706 49.3699  -10000  -10000 49.3786  -10000
49.3807  49.215  49.343 49.1145 49.3703 49.3696  -10000  -10000 49.3783  -10000
49.3804 49.2153 49.3429 49.1151 49.3701 49.3694  -10000  -10000 49.3781  -10000
49.3801 49.2156 49.3427 49.1158 49.3698 49.3691  -10000  -10000 49.3778  -10000
49.3799 49.2159 49.3426 49.1165 49.3696 49.3689  -10000  -10000 49.3775  -10000
49.3796 49.2162 49.3424 49.1171 49.3693 49.3687  -10000  -10000 49.3772  -10000
49.3793 49.2165 49.3423 49.1178 49.3691 49.3684  -10000  -10000  49.377  -10000
 49.379 49.2168 49.3422 49.1184 49.3689 49.3682  -10000  -10000 49.3767  -10000
49.3788 49.2171  49.342 49.1191 49.3686  49.368  -10000  -10000 49.3764  -10000
49.3785 49.2174 49.3419 49.1197 49.3684 49.3677  -10000  -10000 49.3762  -10000
49.3782 49.2177 49.3417 49.1204 49.3681 49.3675  -10000  -10000 49.3759  -10000
49.3779  49.218 49.3416  49.121 49.3679 49.3672  -10000  -10000 49.3757  -10000
49.3777 49.2183 49.3414 49.1216 49.3677  49.367  -10000  -10000 49.3754  -10000
49.3774 49.2186 49.3413 49.1223 49.3674 49.3668  -10000  -10000 49.3751  -10000
49.3771 49.2189 49.3411 49.1229 49.3672 49.3666  -10000  -10000 49.3749  -10000
49.3769 49.2192  49.341 49.1235  49.367 49.3663  -10000  -10000 49.3746  -10000
49.3766 49.2194 49.3409 49.1242 49.3667 49.3661  -10000  -10000 49.3744  -10000
49.3763 49.2197 49.3407 49.1248 49.3665 49.3659  -10000  -10000 49.3741  -10000
49.3761   49.22 49.3406 49.1254 49.3663 49.3656  -10000  -10000 49.3738  -10000
49.3758 49.2203 49.3404 49.1261  49.366 49.3654  -10000  -10000 49.3736  -10000
49.3755 49.2206 49.3403 49.1267 49.3658 49.3652  -10000  -10000 49.3733  -10000
49.3753 49.2209 49.3402 49.1273 49.3656 49.3649  -10000  -10000 49.3731  -10000
 49.375 49.2211   49.34 49.1279 49.3654 49.3647  -10000  -10000 49.3728  -10000
49.3747 49.2214 49.3399 49.1285 49.3651 49.3645  -10000  -10000 49.3726  -10000
49.3745 49.2217 49.3398 49.1291 49.3649 49.3643  -10000  -10000 49.3723  -10000
49.3742  49.222 49.3396 49.1298 49.3647 49.3641  -10000  -10000 49.3721  -10000
 49.374 49.2223 49.3395 49.1304 49.3645 49.3638  -10000  -10000 49.3718  -10000
49.3737 49.2225 49.3393  49.131 49.3642 49.3636  -10000  -10000 49.3716  -10000
49.3735 49.2228 49.3392 49.1316  49.364 49.3634  -10000  -10000 49.3713  -10000
49.3732 49.2231 49.3391 49.1322 49.3638 49.3632  -10000  -10000 49.3711  -10000
49.3729 49.2234 49.3389 49.1328 49.3636 49.3629  -10000  -10000 49.3708  -10000
49.3727 49.2236 49.3388 49.1334 49.3633 49.3627  -10000  -10000 49.3706  -10000
49.3724 49.2239 49.3387  49.134 49.3631 49.3625  -10000  -10000 49.3703  -10000
49.3722 49.2242 49.3385 49.1346 49.3629 49.3623  -10000  -10000 49.3701  -10000
49.3719 49.2245 49.3384 49.1352 49.3627 49.3621  -10000  -10000 49.3698  -10000
49.3717 49.2247 49.3383 49.1357 49.3625 49.3619  -10000  -10000 49.3696  -10000
49.3714  49.225 49.3381 49.1363 49.3623 49.3617  -10000  -10000 49.3694  -10000
49.3712 49.2253  49.338 49.1369  49.362 49.3614  -10000  -10000 49.3691  -10000
49.3709 49.2255 49.3379 49.1375 49.3618 49.3612  -10000  -10000 49.3689  -10000
49.3707 49.2258 49.3378 49.1381 49.3616  49.361  -10000  -10000 49.3686  -10000
49.3704 49.2261 49.3376 49.1387 49.3614 49.3608  -10000  -10000 49.3684  -10000
49.3702 49.2263 49.3375 49.1392 49.3612 49.3606  -10000  -10000 49.3682  -10000
  49.37 49.2266 49.3374 49.1398  49.361 49.3604  -10000  -10000 49.3679  -10000
49.3697 49.2268 49.3372 49.1404 49.3608 49.3602  -10000  -10000 49.3677  -10000
49.3695 49.2271 49.3371 49.1409 49.3606   49.36  -10000  -10000 49.3675  -10000
49.3692 49.2274  49.337 49.1415 49.3603 49.3598  -10000  -10000 49.3672  -10000
 49.369 49.2276 49.3369 49.1421 49.3601 49.3595  -10000  -10000  49.367  -10000
49.3688 49.2279 49.3367 49.1426 49.3599 49.3593  -10000  -10000 49.3668  -10000
49.3685 49.2281 49.3366 49.1432 49.3597 49.3591  -10000  -10000 49.3665  -10000
49.3683 49.2284 49.3365 49.1438 49.3595 49.3589  -10000  -10000 49.3663  -10000
 49.368 49.2287 49.3364 49.1443 49.3593 49.3587  -10000  -10000 49.3661  -10000
49.3678 49.2289 49.3362 49.1449 49.3591 49.3585  -10000  -10000 49.3658  -10000
49.3676 49.2292 49.3361 49.1454 49.3589 49.3583  -10000  -10000 49.3656  -10000
49.3673 49.2294  49.336  49.146 49.3587 49.3581  -10000  -10000 49.3654  -10000
49.3671 49.2297 49.3359 49.1465 49.3585 49.3579  -10000  -10000 49.3652  -10000
49.3669 49.2299 49.3357 49.1471 49.3583 49.3577  -10000  -10000 49.3649  -10000
49.3666 49.2302 49.3356 49.1476 49.3581 49.3575  -10000  -10000 49.3647  -10000
49.3664 49.2304 49.3355 49.1482 49.3579 49.3573  -10000  -10000 49.3645  -10000
49.3662 49.2307 49.3354 49.1487 49.3577 49.3571  -10000  -10000 49.3643  -10000
49.3659 49.2309 49.3353 49.1493 49.3575 49.3569  -10000  -10000  49.364  -10000
49.3657 49.2312 49.3351 49.1498 49.3573 49.3567  -10000  -10000 49.3638  -10000
49.3655 49.2314  49.335 49.1503 49.3571 49.3565  -10000  -10000 49.3636  -10000
49.3653 49.2317 49.3349 49.1509 49.3569 49.3563  -10000  -10000 49.3634  -10000
 49.365 49.2319 49.3348 49.1514 49.3567 49.3561  -10000  -10000 49.3632  -10000
49.3648 49.2322 49.3347 49.1519 49.3565 49.3559  -10000  -10000 49.3629  -10000
49.3646 49.2324 49.3345 49.1525 49.3563 49.3558  -10000  -10000 49.3627  -10000
49.3644 49.2326 49.3344  49.153 49.3561 49.3556  -10000  -10000 49.3625  -10000
49.3641 49.2329 49.3343 49.1535 49.3559 49.3554  -10000  -10000 49.3623  -10000
49.3639 49.2331 49.3342  49.154 49.3557 49.3552  -10000  -10000 49.3621  -10000
49.3637 49.2334 49.3341 49.1546 49.3555  49.355  -10000  -10000 49.3619  -10000
49.3635 49.2336  49.334 49.1551 49.3553 49.3548  -10000  -10000 49.3616  -10000
49.3633 49.2338 49.3338 49.1556 49.3551 49.3546  -10000  -10000 49.3614  -10000
 49.363 49.2341 49.3337 49.1561 49.3549 49.3544  -10000  -10000 49.3612  -10000
49.3628 49.2343 49.3336 49.1566 49.3548 49.3542  -10000  -10000  49.361  -10000
49.3626 49.2346 49.3335 49.1572 49.3546  49.354  -10000  -10000 49.3608  -10000
49.3624 49.2348 49.3334 49.1577 49.3544 49.3539  -10000  -10000 49.3606  -10000
49.3622  49.235 49.3333 49.1582 49.3542 49.3537  -10000  -10000 49.3604  -10000
49.3619 49.2353 49.3331 49.1587  49.354 49.3535  -10000  -10000 49.3602  -10000
49.3617 49.2355  49.333 49.1592 49.3538 49.3533  -10000  -10000   49.36  -10000
49.3615 49.2357 49.3329 49.1597 49.3536 49.3531  -10000  -10000 49.3597  -10000
49.3613  49.236 49.3328 49.1602 49.3534 49.3529  -10000  -10000 49.3595  -10000
49.3611 49.2362 49.3327 49.1607 49.3533 49.3527  -10000  -10000 49.3593  -10000
49.3609 49.2364 49.3326 49.1612 49.3531 49.3526  -10000  -10000 49.3591  -10000
49.3607 49.2367 49.3325 49.1617 49.3529 49.3524  -10000  -10000 49.3589  -10000
49.3605 49.2369 49.3324 49.1622 49.3527 49.3522  -10000  -10000 49.3587  -10000
49.3602 49.2371 49.3323 49.1627 49.3525  49.352  -10000  -10000 49.3585  -10000
  49.36 49.2373 49.3321 49.1632 49.3524 49.3518  -10000  -10000 49.3583  -10000
49.3598 49.2376  49.332 49.1636 49.3522 49.3517  -10000  -10000 49.3581  -10000
49.3596 49.2378 49.3319 49.1641  49.352 49.3515  -10000  -10000 49.3579  -10000
49.3594  49.238 49.3318 49.1646 49.3518 49.3513  -10000  -10000 49.3577  -10000
49.3592 49.2382 49.3317 49.1651 49.3516 49.3511  -10000  -10000 49.3575  -10000
 49.359 49.2385 49.3316 49.1656 49.3515  49.351  -10000  -10000 49.3573  -10000
49.3588 49.2387 49.3315 49.1661 49.3513 49.3508  -10000  -10000 49.3571  -10000
49.3586 49.2389 49.3314 49.1665 49.3511 49.3506  -10000  -10000 49.3569  -10000
49.3584 49.2391 49.3313  49.167 49.3509 49.3504  -10000  -10000 49.3567  -10000
49.3582 49.2393 49.3312 49.1675 49.3507 49.3503  -10000  -10000 49.3565  -10000
 49.358 49.2396 49.3311  49.168 49.3506 49.3501  -10000  -10000 49.3563  -10000
49.3578 49.2398  49.331 49.1684 49.3504 49.3499  -10000  -10000 49.3561  -10000
49.3576   49.24 49.3309 49.1689 49.3502 49.3497  -10000  -10000 49.3559  -10000
49.3574 49.2402 49.3308 49.1694 49.3501 49.3496  -10000  -10000 49.3557  -10000
49.3572 49.2404 49.3307 49.1699 49.3499 49.3494  -10000  -10000 49.3556  -10000
 49.357 49.2406 49.3305 49.1703 49.3497 49.3492  -10000  -10000 49.3554  -10000
49.3568 49.2409 49.3304 49.1708 49.3495 49.3491  -10000  -10000 49.3552  -10000
49.3566 49.2411 49.3303 49.1712 49.3494 49.3489  -10000  -10000  49.355  -10000
49.3564 49.2413 49.3302 49.1717 49.3492 49.3487  -10000  -10000 49.3548  -10000
49.3562 49.2415 49.3301 49.1722  49.349 49.3486  -10000  -10000 49.3546  -10000
 49.356 49.2417   49.33 49.1726 49.3489 49.3484  -10000  -10000 49.3544  -10000
49.3558 49.2419 49.3299 49.1731 49.3487 49.3482  -10000  -10000 49.3542  -10000
49.3556 49.2421 49.3298 49.1735 49.3485 49.3481  -10000  -10000  49.354  -10000
49.3554 49.2423 49.3297  49.174 49.3484 49.3479  -10000  -10000 49.3539  -10000
49.3552 49.2425 49.3296 49.1744 49.3482 49.3477  -10000  -10000 49.3537  -10000
49.3551 49.2427 49.3295 49.1749  49.348 49.3476  -10000  -10000 49.3535  -10000
49.3549  49.243 49.3294 49.1753 49.3479 49.3474  -10000  -10000 49.3533  -10000
49.3547 49.2432 49.3293 49.1758 49.3477 49.3472  -10000  -10000 49.3531  -10000
49.3545 49.2434 49.3292 49.1762 49.3475 49.3471  -10000  -10000 49.3529  -10000
49.3543 49.2436 49.3291 49.1767 49.3474 49.3469  -10000  -10000 49.3527  -10000
49.3541 49.2438  49.329 49.1771 49.3472 49.3467  -10000  -10000 49.3526  -10000
49.3539  49.244 49.3289 49.1776  49.347 49.3466  -10000  -10000 49.3524  -10000
49.3537 49.2442 49.3288  49.178 49.3469 49.3464  -10000  -10000 49.3522  -10000
49.3536 49.2444 49.3287 49.1784 49.3467 49.3463  -10000  -10000  49.352  -10000
49.3534 49.2446 49.3286 49.1789 49.3466 49.3461  -10000  -10000 49.3518  -10000
49.3532 49.2448 49.3285 49.1793 49.3464 49.3459  -10000  -10000 49.3517  -10000
 49.353  49.245 49.3284 49.1797 49.3462 49.3458  -10000  -10000 49.3515  -10000
49.3528 49.2452 49.3284 49.1802 49.3461 49.3456  -10000  -10000 49.3513  -10000
49.3526 49.2454 49.3283 49.1806 49.3459 49.3455  -10000  -10000 49.3511  -10000
49.3525 49.2456 49.3282  49.181 49.3458 49.3453  -10000  -10000  49.351  -10000
49.3523 49.2458 49.3281 49.1814 49.3456 49.3452  -10000  -10000 49.3508  -10000
49.3521  49.246  49.328 49.1819 49.3454  49.345  -10000  -10000 49.3506  -10000
49.3519 49.2462 49.3279 49.1823 49.3453 49.3449  -10000  -10000 49.3504  -10000
49.3517 49.2464 49.3278 49.1827 49.3451 49.3447  -10000  -10000 49.3503  -10000
49.3516 49.2466 49.3277 49.1831  49.345 49.3445  -10000  -10000 49.3501  -10000
49.3514 49.2468 49.3276 49.1835 49.3448 49.3444  -10000  -10000 49.3499  -10000
49.3512 49.2469 49.3275  49.184 49.3447 49.3442  -10000  -10000 49.3497  -10000
 49.351 49.2471 49.3274 49.1844 49.3445 49.3441  -10000  -10000 49.3496  -10000
49.3508 49.2473 49.3273 49.1848 49.3444 49.3439  -10000  -10000 49.3494  -10000
49.3507 49.2475 49.3272 49.1852 49.3442 49.3438  -10000  -10000 49.3492  -10000
49.3505 49.2477 49.3271 49.1856 49.3441 49.3436  -10000  -10000 49.3491  -10000
49.3503 49.2479  49.327  49.186 49.3439 49.3435  -10000  -10000 49.3489  -10000
49.3501 49.2481  49.327 49.1864 49.3438 49.3433  -10000  -10000 49.3487  -10000
  49.35 49.2483 49.3269 49.1868 49.3436 49.3432  -10000  -10000 49.3486  -10000
49.3498 49.2485 49.3268 49.1872 49.3435  49.343  -10000  -10000 49.3484  -10000
49.3496 49.2487 49.3267 49.1877 49.3433 49.3429  -10000  -10000 49.3482  -10000
49.3495 49.2488 49.3266 49.1881 49.3432 49.3427  -10000  -10000 49.3481  -10000
49.3493  49.249 49.3265 49.1885  49.343 49.3426  -10000  -10000 49.3479  -10000
49.3491 49.2492 49.3264 49.1889 49.3429 49.3424  -10000  -10000 49.3477  -10000
49.3489 49.2494 49.3263 49.1893 49.3427 49.3423  -10000  -10000 49.3476  -10000
49.3488 49.2496 49.3262 49.1896 49.3426 49.3422  -10000  -10000 49.3474  -10000
49.3486 49.2498 49.3261   49.19 49.3424  49.342  -10000  -10000 49.3472  -10000
49.3484 49.2499 49.3261 49.1904 49.3423 49.3419  -10000  -10000 49.3471  -10000
49.3483 49.2501  49.326 49.1908 49.3421 49.3417  -10000  -10000 49.3469  -10000
49.3481 49.2503 49.3259 49.1912  49.342 49.3416  -10000  -10000 49.3467  -10000
49.3479 49.2505 49.3258 49.1916 49.3418 49.3414  -10000  -10000 49.3466  -10000
49.3478 49.2507 49.3257  49.192 49.3417 49.3413  -10000  -10000 49.3464  -10000
49.3476 49.2508 49.3256 49.1924 49.3416 49.3412  -10000  -10000 49.3463  -10000
49.3475  49.251 49.3255 49.1928 49.3414  49.341  -10000  -10000 49.3461  -10000
49.3473 49.2512 49.3255 49.1932 49.3413 49.3409  -10000  -10000 49.3459  -10000
49.3471 49.2514 49.3254 49.1935 49.3411 49.3407  -10000  -10000 49.3458  -10000
 49.347 49.2516 49.3253 49.1939  49.341 49.3406  -10000  -10000 49.3456  -10000
49.3468 49.2517 49.3252 49.1943 49.3408 49.3405  -10000  -10000 49.3455  -10000
49.3466 49.2519 49.3251 49.1947 49.3407 49.3403  -10000  -10000 49.3453  -10000
49.3465 49.2521  49.325 49.1951 49.3406 49.3402  -10000  -10000 49.3452  -10000
49.3463 49.2523 49.3249 49.1954 49.3404   49.34  -10000  -10000  49.345  -10000
49.3462 49.2524 49.3249 49.1958 49.3403 49.3399  -10000  -10000 49.3449  -10000
 49.346 49.2526 49.3248 49.1962 49.3402 49.3398  -10000  -10000 49.3447  -10000
49.3458 49.2528 49.3247 49.1966   49.34 49.3396  -10000  -10000 49.3445  -10000
49.3457 49.2529 49.3246 49.1969 49.3399 49.3395  -10000  -10000 49.3444  -10000
49.3455 49.2531 49.3245 49.1973 49.3397 49.3394  -10000  -10000 49.3442  -10000
49.3454 49.2533 49.3244 49.1977 49.3396 49.3392  -10000  -10000 49.3441  -10000
49.3452 49.2535 49.3244  49.198 49.3395 49.3391  -10000  -10000 49.3439  -10000
49.3451 49.2536 49.3243 49.1984 49.3393  49.339  -10000  -10000 49.3438  -10000
49.3449 49.2538 49.3242 49.1988 49.3392 49.3388  -10000  -10000 49.3436  -10000
49.3448  49.254 49.3241 49.1991 49.3391 49.3387  -10000  -10000 49.3435  -10000
49.3446 49.2541  49.324 49.1995 49.3389 49.3386  -10000  -10000 49.3433  -10000
49.3444 49.2543  49.324 49.1998 49.3388 49.3384  -10000  -10000 49.3432  -10000
49.3443 49.2545 49.3239 49.2002 49.3387 49.3383  -10000  -10000  49.343  -10000
49.3441 49.2546 49.3238 49.2006 49.3385 49.3382  -10000  -10000 49.3429  -10000
 49.344 49.2548 49.3237 49.2009 49.3384  49.338  -10000  -10000 49.3427  -10000
49.3438  49.255 49.3236 49.2013 49.3383 49.3379  -10000  -10000 49.3426  -10000
49.3437 49.2551 49.3236 49.2016 49.3381 49.3378  -10000  -10000 49.3424  -10000
49.3435 49.2553 49.3235  49.202  49.338 49.3376  -10000  -10000 49.3423  -10000
49.3434 49.2555 49.3234 49.2023 49.3379 49.3375  -10000  -10000 49.3422  -10000
49.3432 49.2556 49.3233 49.2027 49.3378 49.3374  -10000  -10000  49.342  -10000
49.3431 49.2558 49.3232  49.203 49.3376 49.3373  -10000  -10000 49.3419  -10000
49.3429 49.2559 49.3232 49.2034 49.3375 49.3371  -10000  -10000 49.3417  -10000
49.3428 49.2561 49.3231 49.2037 49.3374  49.337  -10000  -10000 49.3416  -10000
49.3426 49.2563  49.323 49.2041 49.3372 49.3369  -10000  -10000 49.3414  -10000
49.3425 49.2564 49.3229 49.2044 49.3371 49.3368  -10000  -10000 49.3413  -10000
49.3424 49.2566 49.3229 49.2048  49.337 49.3366  -10000  -10000 49.3412  -10000
49.3422 49.2567 49.3228 49.2051 49.3369 49.3365  -10000  -10000  49.341  -10000
49.3421 49.2569 49.3227 49.2054 49.3367 49.3364  -10000  -10000 49.3409  -10000
49.3419  49.257 49.3226 49.2058 49.3366 49.3363  -10000  -10000 49.3407  -10000
49.3418 49.2572 49.3226 49.2061 49.3365 49.3361  -10000  -10000 49.3406  -10000
49.3416 49.2574 49.3225 49.2065 49.3364  49.336  -10000  -10000 49.3405  -10000
49.3415 49.2575 49.3224 49.2068 49.3362 49.3359  -10000  -10000 49.3403  -10000
49.3413 49.2577 49.3223 49.2071 49.3361 49.3358  -10000  -10000 49.3402  -10000
49.3412 49.2578 49.3223 49.2075  49.336 49.3356  -10000  -10000   49.34  -10000
49.3411  49.258 49.3222 49.2078 49.3359 49.3355  -10000  -10000 49.3399  -10000
49.3409 49.2581 49.3221 49.2081 49.3357 49.3354  -10000  -10000 49.3398  -10000
49.3408 49.2583  49.322 49.2085 49.3356 49.3353  -10000  -10000 49.3396  -10000
49.3406 49.2584  49.322 49.2088 49.3355 49.3352  -10000  -10000 49.3395  -10000
49.3405 49.2586 49.3219 49.2091 49.3354  49.335  -10000  -10000 49.3394  -10000
49.3404 49.2587 49.3218 49.2094 49.3353 49.3349  -10000  -10000 49.3392  -10000
49.3402 49.2589 49.3217 49.2098 49.3351 49.3348  -10000  -10000 49.3391  -10000
49.3401  49.259 49.3217 49.2101  49.335 49.3347  -10000  -10000  49.339  -10000
  49.34 49.2592 49.3216 49.2104 49.3349 49.3346  -10000  -10000 49.3388  -10000
49.3398 49.2593 49.3215 49.2107 49.3348 49.3344  -10000  -10000 49.3387  -10000
49.3397 49.2595 49.3215 49.2111 49.3347 49.3343  -10000  -10000 49.3386  -10000
49.3395 49.2596 49.3214 49.2114 49.3345 49.3342  -10000  -10000 49.3384  -10000
49.3394 49.2598 49.3213 49.2117 49.3344 49.3341  -10000  -10000 49.3383  -10000
49.3393 49.2599 49.3212  49.212 49.3343  49.334  -10000  -10000 49.3382  -10000
49.3391 49.2601 49.3212 49.2123 49.3342 49.3339  -10000  -10000  49.338  -10000
 49.339 49.2602 49.3211 49.2126 49.3341 49.3337  -10000  -10000 49.3379  -10000
49.3389 49.2604  49.321  49.213  49.334 49.3336  -10000  -10000 49.3378  -10000
49.3387 49.2605  49.321 49.2133 49.3338 49.3335  -10000  -10000 49.3376  -10000
49.3386 49.2607 49.3209 49.2136 49.3337 49.3334  -10000  -10000 49.3375  -10000
49.3385 49.2608 49.3208 49.2139 49.3336 49.3333  -10000  -10000 49.3374  -10000
49.3383 49.2609 49.3208 49.2142 49.3335 49.3332  -10000  -10000 49.3373  -10000
49.3382 49.2611 49.3207 49.2145 49.3334 49.3331  -10000  -10000 49.3371  -10000
49.3381 49.2612 49.3206 49.2148 49.3333  49.333  -10000  -10000  49.337  -10000
 49.338 49.2614 49.3205 49.2151 49.3332 49.3328  -10000  -10000 49.3369  -10000
49.3378 49.2615 49.3205 49.2154  49.333 49.3327  -10000  -10000 49.3368  -10000
49.3377 49.2617 49.3204 49.2157 49.3329 49.3326  -10000  -10000 49.3366  -10000
49.3376 49.2618 49.3203  49.216 49.3328 49.3325  -10000  -10000 49.3365  -10000
49.3374 49.2619 49.3203 49.2163 49.3327 49.3324  -10000  -10000 49.3364  -10000
49.3373 49.2621 49.3202 49.2166 49.3326 49.3323  -10000  -10000 49.3363  -10000
49.3372 49.2622 49.3201 49.2169 49.3325 49.3322  -10000  -10000 49.3361  -10000
49.3371 49.2624 49.3201 49.2172 49.3324 49.3321  -10000  -10000  49.336  -10000
49.3369 49.2625   49.32 49.2175 49.3323  49.332  -10000  -10000 49.3359  -10000
49.3368 49.2626 49.3199 49.2178 49.3322 49.3319  -10000  -10000 49.3358  -10000
49.3367 49.2628 49.3199 49.2181  49.332 49.3317  -10000  -10000 49.3356  -10000
49.3365 49.2629 49.3198 49.2184 49.3319 49.3316  -10000  -10000 49.3355  -10000
49.3364  49.263 49.3197 49.2187 49.3318 49.3315  -10000  -10000 49.3354  -10000
49.3363 49.2632 49.3197  49.219 49.3317 49.3314  -10000  -10000 49.3353  -10000
49.3362 49.2633 49.3196 49.2193 49.3316 49.3313  -10000  -10000 49.3352  -10000
49.3361 49.2634 49.3196 49.2196 49.3315 49.3312  -10000  -10000  49.335  -10000
49.3359 49.2636 49.3195 49.2199 49.3314 49.3311  -10000  -10000 49.3349  -10000
49.3358 49.2637 49.3194 49.2202 49.3313  49.331  -10000  -10000 49.3348  -10000
49.3357 49.2638 49.3194 49.2205 49.3312 49.3309  -10000  -10000 49.3347  -10000
49.3356  49.264 49.3193 49.2207 49.3311 49.3308  -10000  -10000 49.3346  -10000
49.3354 49.2641 49.3192  49.221  49.331 49.3307  -10000  -10000 49.3344  -10000
49.3353 49.2642 49.3192 49.2213 49.3309 49.3306  -10000  -10000 49.3343  -10000
49.3352 49.2644 49.3191 49.2216 49.3308 49.3305  -10000  -10000 49.3342  -10000
49.3351 49.2645  49.319 49.2219 49.3307 49.3304  -10000  -10000 49.3341  -10000
 49.335 49.2646  49.319 49.2222 49.3306 49.3303  -10000  -10000  49.334  -10000
49.3348 49.2648 49.3189 49.2224 49.3305 49.3302  -10000  -10000 49.3339  -10000
49.3347 49.2649 49.3189 49.2227 49.3304 49.3301  -10000  -10000 49.3337  -10000
49.3346  49.265 49.3188  49.223 49.3302   49.33  -10000  -10000 49.3336  -10000
49.3345 49.2651 49.3187 49.2233 49.3301 49.3299  -10000  -10000 49.3335  -10000
49.3344 49.2653 49.3187 49.2235   49.33 49.3298  -10000  -10000 49.3334  -10000
49.3343 49.2654 49.3186 49.2238 49.3299 49.3297  -10000  -10000 49.3333  -10000
49.3341 49.2655 49.3185 49.2241 49.3298 49.3296  -10000  -10000 49.3332  -10000
 49.334 49.2657 49.3185 49.2244 49.3297 49.3295  -10000  -10000 49.3331  -10000
49.3339 49.2658 49.3184 49.2246 49.3296 49.3294  -10000  -10000  49.333  -10000
49.3338 49.2659 49.3184 49.2249 49.3295 49.3293  -10000  -10000 49.3328  -10000
49.3337  49.266 49.3183 49.2252 49.3294 49.3292  -10000  -10000 49.3327  -10000
49.3336 49.2662 49.3182 49.2255 49.3293 49.3291  -10000  -10000 49.3326  -10000
49.3334 49.2663 49.3182 49.2257 49.3292  49.329  -10000  -10000 49.3325  -10000
49.3333 49.2664 49.3181  49.226 49.3291 49.3289  -10000  -10000 49.3324  -10000
49.3332 49.2665 49.3181 49.2263  49.329 49.3288  -10000  -10000 49.3323  -10000
49.3331 49.2667  49.318 49.2265 49.3289 49.3287  -10000  -10000 49.3322  -10000
 49.333 49.2668 49.3179 49.2268 49.3288 49.3286  -10000  -10000 49.3321  -10000
49.3329 49.2669 49.3179 49.2271 49.3287 49.3285  -10000  -10000  49.332  -10000
49.3328  49.267 49.3178 49.2273 49.3287 49.3284  -10000  -10000 49.3319  -10000
49.3327 49.2671 49.3178 49.2276 49.3286 49.3283  -10000  -10000 49.3317  -10000
49.3325 49.2673 49.3177 49.2278 49.3285 49.3282  -10000  -10000 49.3316  -10000
49.3324 49.2674 49.3177 49.2281 49.3284 49.3281  -10000  -10000 49.3315  -10000
49.3323 49.2675 49.3176 49.2284 49.3283  49.328  -10000  -10000 49.3314  -10000
49.3322 49.2676 49.3175 49.2286 49.3282 49.3279  -10000  -10000 49.3313  -10000
49.3321 49.2677 49.3175 49.2289 49.3281 49.3278  -10000  -10000 49.3312  -10000
 49.332 49.2679 49.3174 49.2291  49.328 49.3277  -10000  -10000 49.3311  -10000
49.3319  49.268 49.3174 49.2294 49.3279 49.3276  -10000  -10000  49.331  -10000
49.3318 49.2681 49.3173 49.2296 49.3278 49.3275  -10000  -10000 49.3309  -10000
49.3317 49.2682 49.3173 49.2299 49.3277 49.3274  -10000  -10000 49.3308  -10000
49.3316 49.2683 49.3172 49.2301 49.3276 49.3273  -10000  -10000 49.3307  -10000
49.3315 49.2685 49.3171 49.2304 49.3275 49.3273  -10000  -10000 49.3306  -10000
49.3314 49.2686 49.3171 49.2306 49.3274 49.3272  -10000  -10000 49.3305  -10000
49.3312 49.2687  49.317 49.2309 49.3273 49.3271  -10000  -10000 49.3304  -10000
49.3311 49.2688  49.317 49.2311 49.3272  49.327  -10000  -10000 49.3303  -10000
 49.331 49.2689 49.3169 49.2314 49.3271 49.3269  -10000  -10000 49.3302  -10000
49.3309  49.269 49.3169 49.2316 49.3271 49.3268  -10000  -10000 49.3301  -10000
49.3308 49.2691 49.3168 49.2319  49.327 49.3267  -10000  -10000   49.33  -10000
49.3307 49.2693 49.3168 49.2321 49.3269 49.3266  -10000  -10000 49.3299  -10000
49.3306 49.2694 49.3167 49.2324 49.3268 49.3265  -10000  -10000 49.3298  -10000
49.3305 49.2695 49.3166 49.2326 49.3267 49.3264  -10000  -10000 49.3297  -10000
49.3304 49.2696 49.3166 49.2329 49.3266 49.3263  -10000  -10000 49.3296  -10000
49.3303 49.2697 49.3165 49.2331 49.3265 49.3263  -10000  -10000 49.3295  -10000
49.3302 49.2698 49.3165 49.2334 49.3264 49.3262  -10000  -10000 49.3294  -10000
49.3301 49.2699 49.3164 49.2336 49.3263 49.3261  -10000  -10000 49.3293  -10000
  49.33   49.27 49.3164 49.2338 49.3262  49.326  -10000  -10000 49.3292  -10000
49.3299 49.2702 49.3163 49.2341 49.3262 49.3259  -10000  -10000 49.3291  -10000
49.3298 49.2703 49.3163 49.2343 49.3261 49.3258  -10000  -10000  49.329  -10000
49.3297 49.2704 49.3162 49.2345  49.326 49.3257  -10000  -10000 49.3289  -10000
49.3296 49.2705 49.3162 49.2348 49.3259 49.3256  -10000  -10000 49.3288  -10000
49.3295 49.2706 49.3161  49.235 49.3258 49.3256  -10000  -10000 49.3287  -10000
49.3294 49.2707 49.3161 49.2353 49.3257 49.3255  -10000  -10000 49.3286  -10000
49.3293 49.2708  49.316 49.2355 49.3256 49.3254  -10000  -10000 49.3285  -10000
49.3292 49.2709  49.316 49.2357 49.3255 49.3253  -10000  -10000 49.3284  -10000
49.3291  49.271 49.3159  49.236 49.3255 49.3252  -10000  -10000 49.3283  -10000
 49.329 49.2711 49.3158 49.2362 49.3254 49.3251  -10000  -10000 49.3282  -10000
49.3289 49.2712 49.3158 49.2364 49.3253 49.3251  -10000  -10000 49.3281  -10000
49.3288 49.2713 49.3157 49.2366 49.3252  49.325  -10000  -10000  49.328  -10000
49.3287 49.2715 49.3157 49.2369 49.3251 49.3249  -10000  -10000 49.3279  -10000
49.3286 49.2716 49.3156 49.2371  49.325 49.3248  -10000  -10000 49.3278  -10000
49.3285 49.2717 49.3156 49.2373  49.325 49.3247  -10000  -10000 49.3277  -10000
49.3284 49.2718 49.3155 49.2376 49.3249 49.3246  -10000  -10000 49.3276  -10000
49.3283 49.2719 49.3155 49.2378 49.3248 49.3246  -10000  -10000 49.3275  -10000
49.3282  49.272 49.3154  49.238 49.3247 49.3245  -10000  -10000 49.3274  -10000
49.3281 49.2721 49.3154 49.2382 49.3246 49.3244  -10000  -10000 49.3273  -10000
 49.328 49.2722 49.3153 49.2385 49.3245 49.3243  -10000  -10000 49.3273  -10000
49.3279 49.2723 49.3153 49.2387 49.3245 49.3242  -10000  -10000 49.3272  -10000
49.3278 49.2724 49.3152 49.2389 49.3244 49.3241  -10000  -10000 49.3271  -10000
49.3277 49.2725 49.3152 49.2391 49.3243 49.3241  -10000  -10000  49.327  -10000
49.3277 49.2726 49.3151 49.2393 49.3242  49.324  -10000  -10000 49.3269  -10000
49.3276 49.2727 49.3151 49.2396 49.3241 49.3239  -10000  -10000 49.3268  -10000
49.3275 49.2728  49.315 49.2398  49.324 49.3238  -10000  -10000 49.3267  -10000
49.3274 49.2729  49.315   49.24  49.324 49.3237  -10000  -10000 49.3266  -10000
49.3273  49.273 49.3149 49.2402 49.3239 49.3237  -10000  -10000 49.3265  -10000
49.3272 49.2731 49.3149 49.2404 49.3238 49.3236  -10000  -10000 49.3264  -10000
49.3271 49.2732 49.3149 49.2406 49.3237 49.3235  -10000  -10000 49.3264  -10000
 49.327 49.2733 49.3148 49.2409 49.3236 49.3234  -10000  -10000 49.3263  -10000
49.3269 49.2734 49.3148 49.2411 49.3236 49.3233  -10000  -10000 49.3262  -10000
49.3268 49.2735 49.3147 49.2413 49.3235 49.3233  -10000  -10000 49.3261  -10000
49.3267 49.2736 49.3147 49.2415 49.3234 49.3232  -10000  -10000  49.326  -10000
49.3266 49.2737 49.3146 49.2417 49.3233 49.3231  -10000  -10000 49.3259  -10000
49.3266 49.2738 49.3146 49.2419 49.3233  49.323  -10000  -10000 49.3258  -10000
49.3265 49.2739 49.3145 49.2421 49.3232  49.323  -10000  -10000 49.3257  -10000
49.3264  49.274 49.3145 49.2423 49.3231 49.3229  -10000  -10000 49.3256  -10000
49.3263 49.2741 49.3144 49.2426  49.323 49.3228  -10000  -10000 49.3256  -10000
49.3262 49.2742 49.3144 49.2428 49.3229 49.3227  -10000  -10000 49.3255  -10000
49.3261 49.2743 49.3143  49.243 49.3229 49.3227  -10000  -10000 49.3254  -10000
 49.326 49.2744 49.3143 49.2432 49.3228 49.3226  -10000  -10000 49.3253  -10000
49.3259 49.2745 49.3142 49.2434 49.3227 49.3225  -10000  -10000 49.3252  -10000
49.3259 49.2746 49.3142 49.2436 49.3226 49.3224  -10000  -10000 49.3251  -10000
49.3258 49.2747 49.3141 49.2438 49.3226 49.3224  -10000  -10000 49.3251  -10000
49.3257 49.2747 49.3141  49.244 49.3225 49.3223  -10000  -10000  49.325  -10000
49.3256 49.2748 49.3141 49.2442 49.3224 49.3222  -10000  -10000 49.3249  -10000
49.3255 49.2749  49.314 49.2444 49.3223 49.3221  -10000  -10000 49.3248  -10000
49.3254  49.275  49.314 49.2446 49.3223 49.3221  -10000  -10000 49.3247  -10000
49.3253 49.2751 49.3139 49.2448 49.3222  49.322  -10000  -10000 49.3246  -10000
49.3252 49.2752 49.3139  49.245 49.3221 49.3219  -10000  -10000 49.3246  -10000
49.3252 49.2753 49.3138 49.2452  49.322 49.3218  -10000  -10000 49.3245  -10000
49.3251 49.2754 49.3138 49.2454  49.322 49.3218  -10000  -10000 49.3244  -10000
 49.325 49.2755 49.3137 49.2456 49.3219 49.3217  -10000  -10000 49.3243  -10000
49.3249 49.2756 49.3137 49.2458 49.3218 49.3216  -10000  -10000 49.3242  -10000
49.3248 49.2757 49.3137  49.246 49.3218 49.3215  -10000  -10000 49.3241  -10000
49.3247 49.2758 49.3136 49.2462 49.3217 49.3215  -10000  -10000 49.3241  -10000
49.3247 49.2759 49.3136 49.2464 49.3216 49.3214  -10000  -10000  49.324  -10000
49.3246 49.2759 49.3135 49.2466 49.3215 49.3213  -10000  -10000 49.3239  -10000
49.3245  49.276 49.3135 49.2468 49.3215 49.3213  -10000  -10000 49.3238  -10000
49.3244 49.2761 49.3134  49.247 49.3214 49.3212  -10000  -10000 49.3237  -10000
49.3243 49.2762 49.3134 49.2472 49.3213 49.3211  -10000  -10000 49.3237  -10000
49.3243 49.2763 49.3134 49.2473 49.3213 49.3211  -10000  -10000 49.3236  -10000
49.3242 49.2764 49.3133 49.2475 49.3212  49.321  -10000  -10000 49.3235  -10000
49.3241 49.2765 49.3133 49.2477 49.3211 49.3209  -10000  -10000 49.3234  -10000
 49.324 49.2766 49.3132 49.2479  49.321 49.3208  -10000  -10000 49.3233  -10000
49.3239 49.2767 49.3132 49.2481  49.321 49.3208  -10000  -10000 49.3233  -10000
49.3238 49.2767 49.3131 49.2483 49.3209 49.3207  -10000  -10000 49.3232  -10000
49.3238 49.2768 49.3131 49.2485 49.3208 49.3206  -10000  -10000 49.3231  -10000
49.3237 49.2769 49.3131 49.2487 49.3208 49.3206  -10000  -10000  49.323  -10000
49.3236  49.277  49.313 49.2489 49.3207 49.3205  -10000  -10000  49.323  -10000
49.3235 49.2771  49.313  49.249 49.3206 49.3204  -10000  -10000 49.3229  -10000
49.3235 49.2772 49.3129 49.2492 49.3206 49.3204  -10000  -10000 49.3228  -10000
49.3234 49.2773 49.3129 49.2494 49.3205 49.3203  -10000  -10000 49.3227  -10000
49.3233 49.2773 49.3129 49.2496 49.3204 49.3202  -10000  -10000 49.3227  -10000
49.3232 49.2774 49.3128 49.2498 49.3204 49.3202  -10000  -10000 49.3226  -10000
49.3231 49.2775 49.3128   49.25 49.3203 49.3201  -10000  -10000 49.3225  -10000
49.3231 49.2776 49.3127 49.2501 49.3202   49.32  -10000  -10000 49.3224  -10000
 49.323 49.2777 49.3127 49.2503 49.3202   49.32  -10000  -10000 49.3224  -10000
49.3229 49.2778 49.3127 49.2505 49.3201 49.3199  -10000  -10000 49.3223  -10000
49.3228 49.2779 49.3126 49.2507   49.32 49.3198  -10000  -10000 49.3222  -10000
49.3228 49.2779 49.3126 49.2509   49.32 49.3198  -10000  -10000 49.3221  -10000
49.3227  49.278 49.3125  49.251 49.3199 49.3197  -10000  -10000 49.3221  -10000
49.3226 49.2781 49.3125 49.2512 49.3198 49.3196  -10000  -10000  49.322  -10000
49.3225 49.2782 49.3125 49.2514 49.3198 49.3196  -10000  -10000 49.3219  -10000
49.3225 49.2783 49.3124 49.2516 49.3197 49.3195  -10000  -10000 49.3218  -10000
49.3224 49.2783 49.3124 49.2517 49.3196 49.3194  -10000  -10000 49.3218  -10000
49.3223 49.2784 49.3123 49.2519 49.3196 49.3194  -10000  -10000 49.3217  -10000
49.3222 49.2785 49.3123 49.2521 49.3195 49.3193  -10000  -10000 49.3216  -10000
49.3222 49.2786 49.3123 49.2523 49.3194 49.3193  -10000  -10000 49.3216  -10000
49.3221 49.2787 49.3122 49.2524 49.3194 49.3192  -10000  -10000 49.3215  -10000
 49.322 49.2787 49.3122 49.2526 49.3193 49.3191  -10000  -10000 49.3214  -10000
49.3219 49.2788 49.3121 49.2528 49.3192 49.3191  -10000  -10000 49.3213  -10000
49.3219 49.2789 49.3121  49.253 49.3192  49.319  -10000  -10000 49.3213  -10000
49.3218  49.279 49.3121 49.2531 49.3191 49.3189  -10000  -10000 49.3212  -10000
49.3217 49.2791  49.312 49.2533  49.319 49.3189  -10000  -10000 49.3211  -10000
49.3216 49.2791  49.312 49.2535  49.319 49.3188  -10000  -10000 49.3211  -10000
49.3216 49.2792 49.3119 49.2536 49.3189 49.3187  -10000  -10000  49.321  -10000
49.3215 49.2793 49.3119 49.2538 49.3189 49.3187  -10000  -10000 49.3209  -10000
49.3214 49.2794 49.3119  49.254 49.3188 49.3186  -10000  -10000 49.3208  -10000
49.3214 49.2795 49.3118 49.2542 49.3187 49.3186  -10000  -10000 49.3208  -10000
49.3213 49.2795 49.3118 49.2543 49.3187 49.3185  -10000  -10000 49.3207  -10000
49.3212 49.2796 49.3118 49.2545 49.3186 49.3184  -10000  -10000 49.3206  -10000
49.3211 49.2797 49.3117 49.2546 49.3186 49.3184  -10000  -10000 49.3206  -10000
49.3211 49.2798 49.3117 49.2548 49.3185 49.3183  -10000  -10000 49.3205  -10000
 49.321 49.2798 49.3117  49.255 49.3184 49.3183  -10000  -10000 49.3204  -10000
49.3209 49.2799 49.3116 49.2551 49.3184 49.3182  -10000  -10000 49.3204  -10000
49.3209   49.28 49.3116 49.2553 49.3183 49.3181  -10000  -10000 49.3203  -10000
49.3208 49.2801 49.3115 49.2555 49.3182 49.3181  -10000  -10000 49.3202  -10000
49.3207 49.2801 49.3115 49.2556 49.3182  49.318  -10000  -10000 49.3202  -10000
49.3207 49.2802 49.3115 49.2558 49.3181  49.318  -10000  -10000 49.3201  -10000
49.3206 49.2803 49.3114  49.256 49.3181 49.3179  -10000  -10000   49.32  -10000
49.3205 49.2804 49.3114 49.2561  49.318 49.3178  -10000  -10000   49.32  -10000
49.3205 49.2804 49.3114 49.2563  49.318 49.3178  -10000  -10000 49.3199  -10000
49.3204 49.2805 49.3113 49.2564 49.3179 49.3177  -10000  -10000 49.3198  -10000
49.3203 49.2806 49.3113 49.2566 49.3178 49.3177  -10000  -10000 49.3198  -10000
49.3203 49.2807 49.3113 49.2568 49.3178 49.3176  -10000  -10000 49.3197  -10000
49.3202 49.2807 49.3112 49.2569 49.3177 49.3176  -10000  -10000 49.3196  -10000
49.3201 49.2808 49.3112 49.2571 49.3177 49.3175  -10000  -10000 49.3196  -10000
49.3201 49.2809 49.3112 49.2572 49.3176 49.3174  -10000  -10000 49.3195  -10000
  49.32  49.281 49.3111 49.2574 49.3175 49.3174  -10000  -10000 49.3194  -10000
49.3199  49.281 49.3111 49.2575 49.3175 49.3173  -10000  -10000 49.3194  -10000
49.3199 49.2811  49.311 49.2577 49.3174 49.3173  -10000  -10000 49.3193  -10000
49.3198 49.2812  49.311 49.2578 49.3174 49.3172  -10000  -10000 49.3193  -10000
49.3197 49.2812  49.311  49.258 49.3173 49.3172  -10000  -10000 49.3192  -10000
49.3197 49.2813 49.3109 49.2582 49.3173 49.3171  -10000  -10000 49.3191  -10000
49.3196 49.2814 49.3109 49.2583 49.3172  49.317  -10000  -10000 49.3191  -10000
49.3195 49.2815 49.3109 49.2585 49.3171  49.317  -10000  -10000  49.319  -10000
49.3195 49.2815 49.3108 49.2586 49.3171 49.3169  -10000  -10000 49.3189  -10000
49.3194 49.2816 49.3108 49.2588  49.317 49.3169  -10000  -10000 49.3189  -10000
49.3193 49.2817 49.3108 49.2589  49.317 49.3168  -10000  -10000 49.3188  -10000
49.3193 49.2817 49.3107 49.2591 49.3169 49.3168  -10000  -10000 49.3187  -10000
49.3192 49.2818 49.3107 49.2592 49.3169 49.3167  -10000  -10000 49.3187  -10000
49.3191 49.2819 49.3107 49.2594 49.3168 49.3167  -10000  -10000 49.3186  -10000
49.3191 49.2819 49.3106 49.2595 49.3168 49.3166  -10000  -10000 49.3186  -10000
 49.319  49.282 49.3106 49.2597 49.3167 49.3165  -10000  -10000 49.3185  -10000
 49.319 49.2821 49.3106 49.2598 49.3166 49.3165  -10000  -10000 49.3184  -10000
49.3189 49.2821 49.3105   49.26 49.3166 49.3164  -10000  -10000 49.3184  -10000
49.3188 49.2822 49.3105 49.2601 49.3165 49.3164  -10000  -10000 49.3183  -10000
49.3188 49.2823 49.3105 49.2602 49.3165 49.3163  -10000  -10000 49.3183  -10000
49.3187 49.2823 49.3104 49.2604 49.3164 49.3163  -10000  -10000 49.3182  -10000
49.3186 49.2824 49.3104 49.2605 49.3164 49.3162  -10000  -10000 49.3181  -10000
49.3186 49.2825 49.3104 49.2607 49.3163 49.3162  -10000  -10000 49.3181  -10000
49.3185 49.2825 49.3103 49.2608 49.3163 49.3161  -10000  -10000  49.318  -10000
49.3185 49.2826 49.3103  49.261 49.3162 49.3161  -10000  -10000  49.318  -10000
49.3184 49.2827 49.3103 49.2611 49.3162  49.316  -10000  -10000 49.3179  -10000
49.3183 49.2827 49.3103 49.2612 49.3161  49.316  -10000  -10000 49.3178  -10000
49.3183 49.2828 49.3102 49.2614 49.3161 49.3159  -10000  -10000 49.3178  -10000
49.3182 49.2829 49.3102 49.2615  49.316 49.3159  -10000  -10000 49.3177  -10000
49.3182 49.2829 49.3102 49.2617  49.316 49.3158  -10000  -10000 49.3177  -10000
49.3181  49.283 49.3101 49.2618 49.3159 49.3158  -10000  -10000 49.3176  -10000
 49.318 49.2831 49.3101  49.262 49.3159 49.3157  -10000  -10000 49.3176  -10000
 49.318 49.2831 49.3101 49.2621 49.3158 49.3157  -10000  -10000 49.3175  -10000
49.3179 49.2832   49.31 49.2622 49.3158 49.3156  -10000  -10000 49.3174  -10000
49.3179 49.2833   49.31 49.2624 49.3157 49.3156  -10000  -10000 49.3174  -10000
49.3178 49.2833   49.31 49.2625 49.3156 49.3155  -10000  -10000 49.3173  -10000
49.3177 49.2834 49.3099 49.2626 49.3156 49.3155  -10000  -10000 49.3173  -10000
49.3177 49.2835 49.3099 49.2628 49.3155 49.3154  -10000  -10000 49.3172  -10000
49.3176 49.2835 49.3099 49.2629 49.3155 49.3154  -10000  -10000 49.3172  -10000
49.3176 49.2836 49.3098 49.2631 49.3154 49.3153  -10000  -10000 49.3171  -10000
49.3175 49.2836 49.3098 49.2632 49.3154 49.3153  -10000  -10000  49.317  -10000
49.3175 49.2837 49.3098 49.2633 49.3153 49.3152  -10000  -10000  49.317  -10000
49.3174 49.2838 49.3098 49.2635 49.3153 49.3152  -10000  -10000 49.3169  -10000
49.3173 49.2838 49.3097 49.2636 49.3152 49.3151  -10000  -10000 49.3169  -10000
49.3173 49.2839 49.3097 49.2637 49.3152 49.3151  -10000  -10000 49.3168  -10000
49.3172  49.284 49.3097 49.2639 49.3151  49.315  -10000  -10000 49.3168  -10000
49.3172  49.284 49.3096  49.264 49.3151  49.315  -10000  -10000 49.3167  -10000
49.3171 49.2841 49.3096 49.2641 49.3151 49.3149  -10000  -10000 49.3167  -10000
49.3171 49.2841 49.3096 49.2643  49.315 49.3149  -10000  -10000 49.3166  -10000
 49.317 49.2842 49.3096 49.2644  49.315 49.3148  -10000  -10000 49.3166  -10000
 49.317 49.2843 49.3095 49.2645 49.3149 49.3148  -10000  -10000 49.3165  -10000
49.3169 49.2843 49.3095 49.2646 49.3149 49.3147  -10000  -10000 49.3164  -10000
49.3168 49.2844 49.3095 49.2648 49.3148 49.3147  -10000  -10000 49.3164  -10000
49.3168 49.2844 49.3094 49.2649 49.3148 49.3146  -10000  -10000 49.3163  -10000
49.3167 49.2845 49.3094  49.265 49.3147 49.3146  -10000  -10000 49.3163  -10000
49.3167 49.2846 49.3094 49.2652 49.3147 49.3145  -10000  -10000 49.3162  -10000
49.3166 49.2846 49.3093 49.2653 49.3146 49.3145  -10000  -10000 49.3162  -10000
49.3166 49.2847 49.3093 49.2654 49.3146 49.3144  -10000  -10000 49.3161  -10000
49.3165 49.2847 49.3093 49.2655 49.3145 49.3144  -10000  -10000 49.3161  -10000
49.3165 49.2848 49.3093 49.2657 49.3145 49.3143  -10000  -10000  49.316  -10000
49.3164 49.2849 49.3092 49.2658 49.3144 49.3143  -10000  -10000  49.316  -10000
49.3164 49.2849 49.3092 49.2659 49.3144 49.3143  -10000  -10000 49.3159  -10000
49.3163  49.285 49.3092 49.2661 49.3143 49.3142  -10000  -10000 49.3159  -10000
49.3162  49.285 49.3092 49.2662 49.3143 49.3142  -10000  -10000 49.3158  -10000
49.3162 49.2851 49.3091 49.2663 49.3142 49.3141  -10000  -10000 49.3158  -10000
49.3161 49.2851 49.3091 49.2664 49.3142 49.3141  -10000  -10000 49.3157  -10000
49.3161 49.2852 49.3091 49.2665 49.3142  49.314  -10000  -10000 49.3157  -10000
 49.316 49.2853  49.309 49.2667 49.3141  49.314  -10000  -10000 49.3156  -10000
 49.316 49.2853  49.309 49.2668 49.3141 49.3139  -10000  -10000 49.3156  -10000
49.3159 49.2854  49.309 49.2669  49.314 49.3139  -10000  -10000 49.3155  -10000
49.3159 49.2854  49.309  49.267  49.314 49.3138  -10000  -10000 49.3155  -10000
49.3158 49.2855 49.3089 49.2672 49.3139 49.3138  -10000  -10000 49.3154  -10000
49.3158 49.2855 49.3089 49.2673 49.3139 49.3138  -10000  -10000 49.3154  -10000
49.3157 49.2856 49.3089 49.2674 49.3138 49.3137  -10000  -10000 49.3153  -10000
49.3157 49.2857 49.3089 49.2675 49.3138 49.3137  -10000  -10000 49.3153  -10000
49.3156 49.2857 49.3088 49.2676 49.3138 49.3136  -10000  -10000 49.3152  -10000
49.3156 49.2858 49.3088 49.2678 49.3137 49.3136  -10000  -10000 49.3152  -10000
49.3155 49.2858 49.3088 49.2679 49.3137 49.3135  -10000  -10000 49.3151  -10000
49.3155 49.2859 49.3087  49.268 49.3136 49.3135  -10000  -10000 49.3151  -10000
49.3154 49.2859 49.3087 49.2681 49.3136 49.3135  -10000  -10000  49.315  -10000
49.3154  49.286 49.3087 49.2682 49.3135 49.3134  -10000  -10000  49.315  -10000
49.3153  49.286 49.3087 49.2683 49.3135 49.3134  -10000  -10000 49.3149  -10000
49.3153 49.2861 49.3086 49.2685 49.3134 49.3133  -10000  -10000 49.3149  -10000
49.3152 49.2861 49.3086 49.2686 49.3134 49.3133  -10000  -10000 49.3148  -10000
49.3152 49.2862 49.3086 49.2687 49.3134 49.3132  -10000  -10000 49.3148  -10000
49.3151 49.2863 49.3086 49.2688 49.3133 49.3132  -10000  -10000 49.3147  -10000
49.3151 49.2863 49.3085 49.2689 49.3133 49.3132  -10000  -10000 49.3147  -10000
 49.315 49.2864 49.3085  49.269 49.3132 49.3131  -10000  -10000 49.3146  -10000
 49.315 49.2864 49.3085 49.2692 49.3132 49.3131  -10000  -10000 49.3146  -10000
49.3149 49.2865 49.3085 49.2693 49.3131  49.313  -10000  -10000 49.3145  -10000
49.3149 49.2865 49.3084 49.2694 49.3131  49.313  -10000  -10000 49.3145  -10000
49.3148 49.2866 49.3084 49.2695 49.3131 49.3129  -10000  -10000 49.3144  -10000
49.3148 49.2866 49.3084 49.2696  49.313 49.3129  -10000  -10000 49.3144  -10000
49.3147 49.2867 49.3084 49.2697  49.313 49.3129  -10000  -10000 49.3143  -10000
49.3147 49.2867 49.3083 49.2698 49.3129 49.3128  -10000  -10000 49.3143  -10000
49.3146 49.2868 49.3083 49.2699 49.3129 49.3128  -10000  -10000 49.3143  -10000
49.3146 49.2868 49.3083 49.2701 49.3129 49.3127  -10000  -10000 49.3142  -10000
49.3145 49.2869 49.3083 49.2702 49.3128 49.3127  -10000  -10000 49.3142  -10000
49.3145 49.2869 49.3082 49.2703 49.3128 49.3127  -10000  -10000 49.3141  -10000
49.3145  49.287 49.3082 49.2704 49.3127 49.3126  -10000  -10000 49.3141  -10000
49.3144  49.287 49.3082 49.2705 49.3127 49.3126  -10000  -10000  49.314  -10000
49.3144 49.2871 49.3082 49.2706 49.3127 49.3125  -10000  -10000  49.314  -10000
49.3143 49.2871 49.3081 49.2707 49.3126 49.3125  -10000  -10000 49.3139  -10000
49.3143 49.2872 49.3081 49.2708 49.3126 49.3125  -10000  -10000 49.3139  -10000
49.3142 49.2872 49.3081 49.2709 49.3125 49.3124  -10000  -10000 49.3138  -10000
49.3142 49.2873 49.3081  49.271 49.3125 49.3124  -10000  -10000 49.3138  -10000
49.3141 49.2873  49.308 49.2711 49.3125 49.3123  -10000  -10000 49.3138  -10000
49.3141 49.2874  49.308 49.2713 49.3124 49.3123  -10000  -10000 49.3137  -10000
 49.314 49.2874  49.308 49.2714 49.3124 49.3123  -10000  -10000 49.3137  -10000
 49.314 49.2875  49.308 49.2715 49.3123 49.3122  -10000  -10000 49.3136  -10000
 49.314 49.2875 49.3079 49.2716 49.3123 49.3122  -10000  -10000 49.3136  -10000
49.3139 49.2876 49.3079 49.2717 49.3123 49.3122  -10000  -10000 49.3135  -10000
49.3139 49.2876 49.3079 49.2718 49.3122 49.3121  -10000  -10000 49.3135  -10000
49.3138 49.2877 49.3079 49.2719 49.3122 49.3121  -10000  -10000 49.3135  -10000
49.3138 49.2877 49.3079  49.272 49.3121  49.312  -10000  -10000 49.3134  -10000
49.3137 49.2878 49.3078 49.2721 49.3121  49.312  -10000  -10000 49.3134  -10000
49.3137 49.2878 49.3078 49.2722 49.3121  49.312  -10000  -10000 49.3133  -10000
49.3136 49.2879 49.3078 49.2723  49.312 49.3119  -10000  -10000 49.3133  -10000
49.3136 49.2879 49.3078 49.2724  49.312 49.3119  -10000  -10000 49.3132  -10000
49.3136  49.288 49.3077 49.2725  49.312 49.3118  -10000  -10000 49.3132  -10000
49.3135  49.288 49.3077 49.2726 49.3119 49.3118  -10000  -10000 49.3132  -10000
49.3135 49.2881 49.3077 49.2727 49.3119 49.3118  -10000  -10000 49.3131  -10000
49.3134 49.2881 49.3077 49.2728 49.3118 49.3117  -10000  -10000 49.3131  -10000
49.3134 49.2882 49.3076 49.2729 49.3118 49.3117  -10000  -10000  49.313  -10000
49.3133 49.2882 49.3076  49.273 49.3118 49.3117  -10000  -10000  49.313  -10000
49.3133 49.2882 49.3076 49.2731 49.3117 49.3116  -10000  -10000 49.3129  -10000
49.3133 49.2883 49.3076 49.2732 49.3117 49.3116  -10000  -10000 49.3129  -10000
49.3132 49.2883 49.3076 49.2733 49.3117 49.3116  -10000  -10000 49.3129  -10000
49.3132 49.2884 49.3075 49.2734 49.3116 49.3115  -10000  -10000 49.3128  -10000
49.3131 49.2884 49.3075 49.2735 49.3116 49.3115  -10000  -10000 49.3128  -10000
49.3131 49.2885 49.3075 49.2736 49.3115 49.3114  -10000  -10000 49.3127  -10000
 49.313 49.2885 49.3075 49.2737 49.3115 49.3114  -10000  -10000 49.3127  -10000
 49.313 49.2886 49.3075 49.2738 49.3115 49.3114  -10000  -10000 49.3127  -10000
 49.313 49.2886 49.3074 49.2739 49.3114 49.3113  -10000  -10000 49.3126  -10000
49.3129 49.2887 49.3074  49.274 49.3114 49.3113  -10000  -10000 49.3126  -10000
49.3129 49.2887 49.3074 49.2741 49.3114 49.3113  -10000  -10000 49.3125  -10000
49.3128 49.2887 49.3074 49.2742 49.3113 49.3112  -10000  -10000 49.3125  -10000
49.3128 49.2888 49.3073 49.2743 49.3113 49.3112  -10000  -10000 49.3125  -10000
49.3128 49.2888 49.3073 49.2744 49.3113 49.3112  -10000  -10000 49.3124  -10000
49.3127 49.2889 49.3073 49.2745 49.3112 49.3111  -10000  -10000 49.3124  -10000
49.3127 49.2889 49.3073 49.2746 49.3112 49.3111  -10000  -10000 49.3123  -10000
49.3126  49.289 49.3073 49.2747 49.3112 49.3111  -10000  -10000 49.3123  -10000
49.3126  49.289 49.3072 49.2748 49.3111  49.311  -10000  -10000 49.3123  -10000
49.3126 49.2891 49.3072 49.2749 49.3111  49.311  -10000  -10000 49.3122  -10000
49.3125 49.2891 49.3072 49.2749 49.3111  49.311  -10000  -10000 49.3122  -10000
49.3125 49.2891 49.3072  49.275  49.311 49.3109  -10000  -10000 49.3122  -10000
49.3124 49.2892 49.3072 49.2751  49.311 49.3109  -10000  -10000 49.3121  -10000
49.3124 49.2892 49.3071 49.2752 49.3109 49.3109  -10000  -10000 49.3121  -10000
49.3124 49.2893 49.3071 49.2753 49.3109 49.3108  -10000  -10000  49.312  -10000
49.3123 49.2893 49.3071 49.2754 49.3109 49.3108  -10000  -10000  49.312  -10000
49.3123 49.2894 49.3071 49.2755 49.3108 49.3108  -10000  -10000  49.312  -10000
49.3122 49.2894 49.3071 49.2756 49.3108 49.3107  -10000  -10000 49.3119  -10000
49.3122 49.2894  49.307 49.2757 49.3108 49.3107  -10000  -10000 49.3119  -10000
49.3122 49.2895  49.307 49.2758 49.3107 49.3107  -10000  -10000 49.3118  -10000
49.3121 49.2895  49.307 49.2759 49.3107 49.3106  -10000  -10000 49.3118  -10000
49.3121 49.2896  49.307  49.276 49.3107 49.3106  -10000  -10000 49.3118  -10000
49.3121 49.2896 49.3069  49.276 49.3106 49.3106  -10000  -10000 49.3117  -10000
 49.312 49.2896 49.3069 49.2761 49.3106 49.3105  -10000  -10000 49.3117  -10000
 49.312 49.2897 49.3069 49.2762 49.3106 49.3105  -10000  -10000 49.3117  -10000
49.3119 49.2897 49.3069 49.2763 49.3105 49.3105  -10000  -10000 49.3116  -10000
49.3119 49.2898 49.3069 49.2764 49.3105 49.3104  -10000  -10000 49.3116  -10000
49.3119 49.2898 49.3069 49.2765 49.3105 49.3104  -10000  -10000 49.3116  -10000
49.3118 49.2899 49.3068 49.2766 49.3104 49.3104  -10000  -10000 49.3115  -10000
49.3118 49.2899 49.3068 49.2767 49.3104 49.3103  -10000  -10000 49.3115  -10000
49.3117 49.2899 49.3068 49.2768 49.3104 49.3103  -10000  -10000 49.3114  -10000
49.3117   49.29 49.3068 49.2768 49.3104 49.3103  -10000  -10000 49.3114  -10000
49.3117   49.29 49.3068 49.2769 49.3103 49.3102  -10000  -10000 49.3114  -10000
49.3116 49.2901 49.3067  49.277 49.3103 49.3102  -10000  -10000 49.3113  -10000
49.3116 49.2901 49.3067 49.2771 49.3103 49.3102  -10000  -10000 49.3113  -10000
49.3116 49.2901 49.3067 49.2772 49.3102 49.3101  -10000  -10000 49.3113  -10000
49.3115 49.2902 49.3067 49.2773 49.3102 49.3101  -10000  -10000 49.3112  -10000
49.3115 49.2902 49.3067 49.2774 49.3102 49.3101  -10000  -10000 49.3112  -10000
49.3115 49.2903 49.3066 49.2774 49.3101   49.31  -10000  -10000 49.3112  -10000
49.3114 49.2903 49.3066 49.2775 49.3101   49.31  -10000  -10000 49.3111  -10000
49.3114 49.2903 49.3066 49.2776 49.3101   49.31  -10000  -10000 49.3111  -10000
49.3114 49.2904 49.3066 49.2777   49.31   49.31  -10000  -10000 49.3111  -10000
49.3113 49.2904 49.3066 49.2778   49.31 49.3099  -10000  -10000  49.311  -10000
49.3113 49.2904 49.3065 49.2779   49.31 49.3099  -10000  -10000  49.311  -10000
49.3112 49.2905 49.3065 49.2779 49.3099 49.3099  -10000  -10000  49.311  -10000
49.3112 49.2905 49.3065  49.278 49.3099 49.3098  -10000  -10000 49.3109  -10000
49.3112 49.2906 49.3065 49.2781 49.3099 49.3098  -10000  -10000 49.3109  -10000
49.3111 49.2906 49.3065 49.2782 49.3099 49.3098  -10000  -10000 49.3109  -10000
49.3111 49.2906 49.3065 49.2783 49.3098 49.3097  -10000  -10000 49.3108  -10000
49.3111 49.2907 49.3064 49.2784 49.3098 49.3097  -10000  -10000 49.3108  -10000
 49.311 49.2907 49.3064 49.2784 49.3098 49.3097  -10000  -10000 49.3108  -10000
 49.311 49.2907 49.3064 49.2785 49.3097 49.3096  -10000  -10000 49.3107  -10000
 49.311 49.2908 49.3064 49.2786 49.3097 49.3096  -10000  -10000 49.3107  -10000
49.3109 49.2908 49.3064 49.2787 49.3097 49.3096  -10000  -10000 49.3107  -10000
49.3109 49.2909 49.3063 49.2788 49.3096 49.3096  -10000  -10000 49.3106  -10000
49.3109 49.2909 49.3063 49.2788 49.3096 49.3095  -10000  -10000 49.3106  -10000
49.3108 49.2909 49.3063 49.2789 49.3096 49.3095  -10000  -10000 49.3106  -10000
49.3108  49.291 49.3063  49.279 49.3096 49.3095  -10000  -10000 49.3105  -10000
49.3108  49.291 49.3063 49.2791 49.3095 49.3094  -10000  -10000 49.3105  -10000
49.3107  49.291 49.3063 49.2792 49.3095 49.3094  -10000  -10000 49.3105  -10000
49.3107 49.2911 49.3062 49.2792 49.3095 49.3094  -10000  -10000 49.3104  -10000
49.3107 49.2911 49.3062 49.2793 49.3094 49.3094  -10000  -10000 49.3104  -10000
49.3106 49.2912 49.3062 49.2794 49.3094 49.3093  -10000  -10000 49.3104  -10000
49.3106 49.2912 49.3062 49.2795 49.3094 49.3093  -10000  -10000 49.3103  -10000
49.3106 49.2912 49.3062 49.2795 49.3094 49.3093  -10000  -10000 49.3103  -10000
49.3105 49.2913 49.3062 49.2796 49.3093 49.3092  -10000  -10000 49.3103  -10000
49.3105 49.2913 49.3061 49.2797 49.3093 49.3092  -10000  -10000 49.3102  -10000
49.3105 49.2913 49.3061 49.2798 49.3093 49.3092  -10000  -10000 49.3102  -10000
49.3104 49.2914 49.3061 49.2799 49.3092 49.3092  -10000  -10000 49.3102  -10000
49.3104 49.2914 49.3061 49.2799 49.3092 49.3091  -10000  -10000 49.3101  -10000
49.3104 49.2914 49.3061   49.28 49.3092 49.3091  -10000  -10000 49.3101  -10000
49.3103 49.2915  49.306 49.2801 49.3092 49.3091  -10000  -10000 49.3101  -10000
49.3103 49.2915  49.306 49.2802 49.3091 49.3091  -10000  -10000   49.31  -10000
49.3103 49.2915  49.306 49.2802 49.3091  49.309  -10000  -10000   49.31  -10000
49.3102 49.2916  49.306 49.2803 49.3091  49.309  -10000  -10000   49.31  -10000
49.3102 49.2916  49.306 49.2804  49.309  49.309  -10000  -10000   49.31  -10000
49.3102 49.2916  49.306 49.2805  49.309 49.3089  -10000  -10000 49.3099  -10000
49.3101 49.2917  49.306 49.2805  49.309 49.3089  -10000  -10000 49.3099  -10000
49.3101 49.2917 49.3059 49.2806  49.309 49.3089  -10000  -10000 49.3099  -10000
49.3101 49.2917 49.3059 49.2807 49.3089 49.3089  -10000  -10000 49.3098  -10000
49.3101 49.2918 49.3059 49.2807 49.3089 49.3088  -10000  -10000 49.3098  -10000
  49.31 49.2918 49.3059 49.2808 49.3089 49.3088  -10000  -10000 49.3098  -10000
  49.31 49.2918 49.3059 49.2809 49.3089 49.3088  -10000  -10000 49.3097  -10000
  49.31 49.2919 49.3059  49.281 49.3088 49.3088  -10000  -10000 49.3097  -10000
49.3099 49.2919 49.3058  49.281 49.3088 49.3087  -10000  -10000 49.3097  -10000
49.3099 49.2919 49.3058 49.2811 49.3088 49.3087  -10000  -10000 49.3097  -10000
49.3099  49.292 49.3058 49.2812 49.3087 49.3087  -10000  -10000 49.3096  -10000
49.3098  49.292 49.3058 49.2812 49.3087 49.3087  -10000  -10000 49.3096  -10000
49.3098  49.292 49.3058 49.2813 49.3087 49.3086  -10000  -10000 49.3096  -10000
49.3098 49.2921 49.3058 49.2814 49.3087 49.3086  -10000  -10000 49.3095  -10000
49.3097 49.2921 49.3057 49.2815 49.3086 49.3086  -10000  -10000 49.3095  -10000
49.3097 49.2921 49.3057 49.2815 49.3086 49.3085  -10000  -10000 49.3095  -10000
49.3097 49.2922 49.3057 49.2816 49.3086 49.3085  -10000  -10000 49.3094  -10000
49.3097 49.2922 49.3057 49.2817 49.3086 49.3085  -10000  -10000 49.3094  -10000
49.3096 49.2922 49.3057 49.2817 49.3085 49.3085  -10000  -10000 49.3094  -10000
49.3096 49.2923 49.3057 49.2818 49.3085 49.3084  -10000  -10000 49.3094  -10000
49.3096 49.2923 49.3056 49.2819 49.3085 49.3084  -10000  -10000 49.3093  -10000
49.3095 49.2923 49.3056 49.2819 49.3085 49.3084  -10000  -10000 49.3093  -10000
49.3095 49.2924 49.3056  49.282 49.3084 49.3084  -10000  -10000 49.3093  -10000
49.3095 49.2924 49.3056 49.2821 49.3084 49.3083  -10000  -10000 49.3092  -10000
49.3095 49.2924 49.3056 49.2822 49.3084 49.3083  -10000  -10000 49.3092  -10000
49.3094 49.2925 49.3056 49.2822 49.3084 49.3083  -10000  -10000 49.3092  -10000
49.3094 49.2925 49.3056 49.2823 49.3083 49.3083  -10000  -10000 49.3092  -10000
49.3094 49.2925 49.3055 49.2824 49.3083 49.3082  -10000  -10000 49.3091  -10000
49.3093 49.2926 49.3055 49.2824 49.3083 49.3082  -10000  -10000 49.3091  -10000
49.3093 49.2926 49.3055 49.2825 49.3083 49.3082  -10000  -10000 49.3091  -10000
49.3093 49.2926 49.3055 49.2826 49.3082 49.3082  -10000  -10000 49.3091  -10000
49.3093 49.2927 49.3055 49.2826 49.3082 49.3081  -10000  -10000  49.309  -10000
49.3092 49.2927 49.3055 49.2827 49.3082 49.3081  -10000  -10000  49.309  -10000
49.3092 49.2927 49.3055 49.2828 49.3082 49.3081  -10000  -10000  49.309  -10000
49.3092 49.2927 49.3054 49.2828 49.3081 49.3081  -10000  -10000 49.3089  -10000
49.3091 49.2928 49.3054 49.2829 49.3081 49.3081  -10000  -10000 49.3089  -10000
49.3091 49.2928 49.3054  49.283 49.3081  49.308  -10000  -10000 49.3089  -10000
49.3091 49.2928 49.3054  49.283 49.3081  49.308  -10000  -10000 49.3089  -10000
49.3091 49.2929 49.3054 49.2831  49.308  49.308  -10000  -10000 49.3088  -10000
 49.309 49.2929 49.3054 49.2831  49.308  49.308  -10000  -10000 49.3088  -10000
 49.309 49.2929 49.3054 49.2832  49.308 49.3079  -10000  -10000 49.3088  -10000
 49.309  49.293 49.3053 49.2833  49.308 49.3079  -10000  -10000 49.3088  -10000
 49.309  49.293 49.3053 49.2833  49.308 49.3079  -10000  -10000 49.3087  -10000
49.3089  49.293 49.3053 49.2834 49.3079 49.3079  -10000  -10000 49.3087  -10000
49.3089  49.293 49.3053 49.2835 49.3079 49.3078  -10000  -10000 49.3087  -10000
49.3089 49.2931 49.3053 49.2835 49.3079 49.3078  -10000  -10000 49.3087  -10000
49.3088 49.2931 49.3053 49.2836 49.3079 49.3078  -10000  -10000 49.3086  -10000
49.3088 49.2931 49.3053 49.2837 49.3078 49.3078  -10000  -10000 49.3086  -10000
49.3088 49.2932 49.3052 49.2837 49.3078 49.3077  -10000  -10000 49.3086  -10000
49.3088 49.2932 49.3052 49.2838 49.3078 49.3077  -10000  -10000 49.3085  -10000
49.3087 49.2932 49.3052 49.2838 49.3078 49.3077  -10000  -10000 49.3085  -10000
49.3087 49.2932 49.3052 49.2839 49.3077 49.3077  -10000  -10000 49.3085  -10000
49.3087 49.2933 49.3052  49.284 49.3077 49.3077  -10000  -10000 49.3085  -10000
49.3087 49.2933 49.3052  49.284 49.3077 49.3076  -10000  -10000 49.3084  -10000
49.3086 49.2933 49.3052 49.2841 49.3077 49.3076  -10000  -10000 49.3084  -10000
49.3086 49.2934 49.3051 49.2841 49.3077 49.3076  -10000  -10000 49.3084  -10000
49.3086 49.2934 49.3051 49.2842 49.3076 49.3076  -10000  -10000 49.3084  -10000
49.3086 49.2934 49.3051 49.2843 49.3076 49.3075  -10000  -10000 49.3083  -10000
49.3085 49.2934 49.3051 49.2843 49.3076 49.3075  -10000  -10000 49.3083  -10000
49.3085 49.2935 49.3051 49.2844 49.3076 49.3075  -10000  -10000 49.3083  -10000
49.3085 49.2935 49.3051 49.2845 49.3075 49.3075  -10000  -10000 49.3083  -10000
49.3085 49.2935 49.3051 49.2845 49.3075 49.3075  -10000  -10000 49.3082  -10000
49.3084 49.2936  49.305 49.2846 49.3075 49.3074  -10000  -10000 49.3082  -10000
49.3084 49.2936  49.305 49.2846 49.3075 49.3074  -10000  -10000 49.3082  -10000
49.3084 49.2936  49.305 49.2847 49.3075 49.3074  -10000  -10000 49.3082  -10000
49.3084 49.2936  49.305 49.2847 49.3074 49.3074  -10000  -10000 49.3081  -10000
49.3083 49.2937  49.305 49.2848 49.3074 49.3073  -10000  -10000 49.3081  -10000
49.3083 49.2937  49.305 49.2849 49.3074 49.3073  -10000  -10000 49.3081  -10000
49.3083 49.2937  49.305 49.2849 49.3074 49.3073  -10000  -10000 49.3081  -10000
49.3083 49.2937  49.305  49.285 49.3073 49.3073  -10000  -10000 49.3081  -10000
49.3082 49.2938 49.3049  49.285 49.3073 49.3073  -10000  -10000  49.308  -10000
49.3082 49.2938 49.3049 49.2851 49.3073 49.3072  -10000  -10000  49.308  -10000
49.3082 49.2938 49.3049 49.2852 49.3073 49.3072  -10000  -10000  49.308  -10000
49.3082 49.2939 49.3049 49.2852 49.3073 49.3072  -10000  -10000  49.308  -10000
49.3081 49.2939 49.3049 49.2853 49.3072 49.3072  -10000  -10000 49.3079  -10000
49.3081 49.2939 49.3049 49.2853 49.3072 49.3072  -10000  -10000 49.3079  -10000
49.3081 49.2939 49.3049 49.2854 49.3072 49.3071  -10000  -10000 49.3079  -10000
49.3081  49.294 49.3049 49.2854 49.3072 49.3071  -10000  -10000 49.3079  -10000
 49.308  49.294 49.3048 49.2855 49.3072 49.3071  -10000  -10000 49.3078  -10000
 49.308  49.294 49.3048 49.2855 49.3071 49.3071  -10000  -10000 49.3078  -10000
 49.308  49.294 49.3048 49.2856 49.3071 49.3071  -10000  -10000 49.3078  -10000
 49.308 49.2941 49.3048 49.2857 49.3071  49.307  -10000  -10000 49.3078  -10000
49.3079 49.2941 49.3048 49.2857 49.3071  49.307  -10000  -10000 49.3077  -10000
49.3079 49.2941 49.3048 49.2858 49.3071  49.307  -10000  -10000 49.3077  -10000
49.3079 49.2941 49.3048 49.2858  49.307  49.307  -10000  -10000 49.3077  -10000
49.3079 49.2942 49.3048 49.2859  49.307  49.307  -10000  -10000 49.3077  -10000
49.3078 49.2942 49.3047 49.2859  49.307 49.3069  -10000  -10000 49.3077  -10000
49.3078 49.2942 49.3047  49.286  49.307 49.3069  -10000  -10000 49.3076  -10000
49.3078 49.2942 49.3047  49.286  49.307 49.3069  -10000  -10000 49.3076  -10000
49.3078 49.2943 49.3047 49.2861 49.3069 49.3069  -10000  -10000 49.3076  -10000
49.3078 49.2943 49.3047 49.2862 49.3069 49.3069  -10000  -10000 49.3076  -10000
49.3077 49.2943 49.3047 49.2862 49.3069 49.3068  -10000  -10000 49.3075  -10000
49.3077 49.2943 49.3047 49.2863 49.3069 49.3068  -10000  -10000 49.3075  -10000
49.3077 49.2944 49.3047 49.2863 49.3069 49.3068  -10000  -10000 49.3075  -10000
49.3077 49.2944 49.3046 49.2864 49.3068 49.3068  -10000  -10000 49.3075  -10000
49.3076 49.2944 49.3046 49.2864 49.3068 49.3068  -10000  -10000 49.3075  -10000
49.3076 49.2944 49.3046 49.2865 49.3068 49.3067  -10000  -10000 49.3074  -10000
49.3076 49.2945 49.3046 49.2865 49.3068 49.3067  -10000  -10000 49.3074  -10000
49.3076 49.2945 49.3046 49.2866 49.3068 49.3067  -10000  -10000 49.3074  -10000
49.3076 49.2945 49.3046 49.2866 49.3067 49.3067  -10000  -10000 49.3074  -10000
49.3075 49.2945 49.3046 49.2867 49.3067 49.3067  -10000  -10000 49.3073  -10000
49.3075 49.2946 49.3046 49.2867 49.3067 49.3066  -10000  -10000 49.3073  -10000
49.3075 49.2946 49.3046 49.2868 49.3067 49.3066  -10000  -10000 49.3073  -10000
49.3075 49.2946 49.3045 49.2868 49.3067 49.3066  -10000  -10000 49.3073  -10000
49.3074 49.2946 49.3045 49.2869 49.3066 49.3066  -10000  -10000 49.3073  -10000
49.3074 49.2947 49.3045 49.2869 49.3066 49.3066  -10000  -10000 49.3072  -10000
49.3074 49.2947 49.3045  49.287 49.3066 49.3066  -10000  -10000 49.3072  -10000
49.3074 49.2947 49.3045  49.287 49.3066 49.3065  -10000  -10000 49.3072  -10000
49.3074 49.2947 49.3045 49.2871 49.3066 49.3065  -10000  -10000 49.3072  -10000
49.3073 49.2947 49.3045 49.2871 49.3065 49.3065  -10000  -10000 49.3072  -10000
49.3073 49.2948 49.3045 49.2872 49.3065 49.3065  -10000  -10000 49.3071  -10000
49.3073 49.2948 49.3045 49.2872 49.3065 49.3065  -10000  -10000 49.3071  -10000
49.3073 49.2948 49.3044 49.2873 49.3065 49.3064  -10000  -10000 49.3071  -10000
49.3073 49.2948 49.3044 49.2873 49.3065 49.3064  -10000  -10000 49.3071  -10000
49.3072 49.2949 49.3044 49.2874 49.3065 49.3064  -10000  -10000 49.3071  -10000
49.3072 49.2949 49.3044 49.2874 49.3064 49.3064  -10000  -10000  49.307  -10000
49.3072 49.2949 49.3044 49.2875 49.3064 49.3064  -10000  -10000  49.307  -10000
49.3072 49.2949 49.3044 49.2875 49.3064 49.3064  -10000  -10000  49.307  -10000
49.3071  49.295 49.3044 49.2876 49.3064 49.3063  -10000  -10000  49.307  -10000
49.3071  49.295 49.3044 49.2876 49.3064 49.3063  -10000  -10000  49.307  -10000
49.3071  49.295 49.3044 49.2877 49.3063 49.3063  -10000  -10000 49.3069  -10000
49.3071  49.295 49.3043 49.2877 49.3063 49.3063  -10000  -10000 49.3069  -10000
49.3071  49.295 49.3043 49.2878 49.3063 49.3063  -10000  -10000 49.3069  -10000
 49.307 49.2951 49.3043 49.2878 49.3063 49.3062  -10000  -10000 49.3069  -10000
 49.307 49.2951 49.3043 49.2879 49.3063 49.3062  -10000  -10000 49.3069  -10000
 49.307 49.2951 49.3043 49.2879 49.3063 49.3062  -10000  -10000 49.3068  -10000
 49.307 49.2951 49.3043  49.288 49.3062 49.3062  -10000  -10000 49.3068  -10000
 49.307 49.2952 49.3043  49.288 49.3062 49.3062  -10000  -10000 49.3068  -10000
49.3069 49.2952 49.3043 49.2881 49.3062 49.3062  -10000  -10000 49.3068  -10000
49.3069 49.2952 49.3043 49.2881 49.3062 49.3061  -10000  -10000 49.3068  -10000
49.3069 49.2952 49.3042 49.2882 49.3062 49.3061  -10000  -10000 49.3067  -10000
49.3069 49.2952 49.3042 49.2882 49.3062 49.3061  -10000  -10000 49.3067  -10000
49.3069 49.2953 49.3042 49.2883 49.3061 49.3061  -10000  -10000 49.3067  -10000
49.3068 49.2953 49.3042 49.2883 49.3061 49.3061  -10000  -10000 49.3067  -10000
49.3068 49.2953 49.3042 49.2883 49.3061 49.3061  -10000  -10000 49.3067  -10000
49.3068 49.2953 49.3042 49.2884 49.3061  49.306  -10000  -10000 49.3066  -10000
49.3068 49.2953 49.3042 49.2884 49.3061  49.306  -10000  -10000 49.3066  -10000
49.3068 49.2954 49.3042 49.2885 49.3061  49.306  -10000  -10000 49.3066  -10000
49.3067 49.2954 49.3042 49.2885  49.306  49.306  -10000  -10000 49.3066  -10000
49.3067 49.2954 49.3042 49.2886  49.306  49.306  -10000  -10000 49.3066  -10000
49.3067 49.2954 49.3041 49.2886  49.306  49.306  -10000  -10000 49.3066  -10000
49.3067 49.2954 49.3041 49.2887  49.306 49.3059  -10000  -10000 49.3065  -10000
49.3067 49.2955 49.3041 49.2887  49.306 49.3059  -10000  -10000 49.3065  -10000
49.3067 49.2955 49.3041 49.2887  49.306 49.3059  -10000  -10000 49.3065  -10000
49.3066 49.2955 49.3041 49.2888 49.3059 49.3059  -10000  -10000 49.3065  -10000
49.3066 49.2955 49.3041 49.2888 49.3059 49.3059  -10000  -10000 49.3065  -10000
49.3066 49.2956 49.3041 49.2889 49.3059 49.3059  -10000  -10000 49.3064  -10000
49.3066 49.2956 49.3041 49.2889 49.3059 49.3058  -10000  -10000 49.3064  -10000
49.3066 49.2956 49.3041  49.289 49.3059 49.3058  -10000  -10000 49.3064  -10000
49.3065 49.2956 49.3041  49.289 49.3059 49.3058  -10000  -10000 49.3064  -10000
49.3065 49.2956  49.304 49.2891 49.3058 49.3058  -10000  -10000 49.3064  -10000
49.3065 49.2957  49.304 49.2891 49.3058 49.3058  -10000  -10000 49.3064  -10000
49.3065 49.2957  49.304 49.2891 49.3058 49.3058  -10000  -10000 49.3063  -10000
49.3065 49.2957  49.304 49.2892 49.3058 49.3057  -10000  -10000 49.3063  -10000
49.3064 49.2957  49.304 49.2892 49.3058 49.3057  -10000  -10000 49.3063  -10000
49.3064 49.2957  49.304 49.2893 49.3058 49.3057  -10000  -10000 49.3063  -10000
49.3064 49.2958  49.304 49.2893 49.3057 49.3057  -10000  -10000 49.3063  -10000
49.3064 49.2958  49.304 49.2894 49.3057 49.3057  -10000  -10000 49.3062  -10000
49.3064 49.2958  49.304 49.2894 49.3057 49.3057  -10000  -10000 49.3062  -10000
49.3064 49.2958  49.304 49.2894 49.3057 49.3057  -10000  -10000 49.3062  -10000
49.3063 49.2958  49.304 49.2895 49.3057 49.3056  -10000  -10000 49.3062  -10000
49.3063 49.2959 49.3039 49.2895 49.3057 49.3056  -10000  -10000 49.3062  -10000
49.3063 49.2959 49.3039 49.2896 49.3056 49.3056  -10000  -10000 49.3062  -10000
49.3063 49.2959 49.3039 49.2896 49.3056 49.3056  -10000  -10000 49.3061  -10000
49.3063 49.2959 49.3039 49.2897 49.3056 49.3056  -10000  -10000 49.3061  -10000
49.3062 49.2959 49.3039 49.2897 49.3056 49.3056  -10000  -10000 49.3061  -10000
49.3062 49.2959 49.3039 49.2897 49.3056 49.3055  -10000  -10000 49.3061  -10000
49.3062  49.296 49.3039 49.2898 49.3056 49.3055  -10000  -10000 49.3061  -10000
49.3062  49.296 49.3039 49.2898 49.3056 49.3055  -10000  -10000 49.3061  -10000
49.3062  49.296 49.3039 49.2899 49.3055 49.3055  -10000  -10000  49.306  -10000
49.3062  49.296 49.3039 49.2899 49.3055 49.3055  -10000  -10000  49.306  -10000
49.3061  49.296 49.3038 49.2899 49.3055 49.3055  -10000  -10000  49.306  -10000
49.3061 49.2961 49.3038   49.29 49.3055 49.3055  -10000  -10000  49.306  -10000
49.3061 49.2961 49.3038   49.29 49.3055 49.3054  -10000  -10000  49.306  -10000
49.3061 49.2961 49.3038 49.2901 49.3055 49.3054  -10000  -10000  49.306  -10000
49.3061 49.2961 49.3038 49.2901 49.3055 49.3054  -10000  -10000 49.3059  -10000
49.3061 49.2961 49.3038 49.2901 49.3054 49.3054  -10000  -10000 49.3059  -10000
 49.306 49.2962 49.3038 49.2902 49.3054 49.3054  -10000  -10000 49.3059  -10000
 49.306 49.2962 49.3038 49.2902 49.3054 49.3054  -10000  -10000 49.3059  -10000
 49.306 49.2962 49.3038 49.2903 49.3054 49.3054  -10000  -10000 49.3059  -10000
 49.306 49.2962 49.3038 49.2903 49.3054 49.3053  -10000  -10000 49.3059  -10000
 49.306 49.2962 49.3038 49.2903 49.3054 49.3053  -10000  -10000 49.3058  -10000
 49.306 49.2962 49.3038 49.2904 49.3054 49.3053  -10000  -10000 49.3058  -10000
49.3059 49.2963 49.3037 49.2904 49.3053 49.3053  -10000  -10000 49.3058  -10000
49.3059 49.2963 49.3037 49.2904 49.3053 49.3053  -10000  -10000 49.3058  -10000
49.3059 49.2963 49.3037 49.2905 49.3053 49.3053  -10000  -10000 49.3058  -10000
49.3059 49.2963 49.3037 49.2905 49.3053 49.3053  -10000  -10000 49.3058  -10000
49.3059 49.2963 49.3037 49.2906 49.3053 49.3052  -10000  -10000 49.3057  -10000
49.3059 49.2963 49.3037 49.2906 49.3053 49.3052  -10000  -10000 49.3057  -10000
49.3058 49.2964 49.3037 49.2906 49.3053 49.3052  -10000  -10000 49.3057  -10000
49.3058 49.2964 49.3037 49.2907 49.3052 49.3052  -10000  -10000 49.3057  -10000
49.3058 49.2964 49.3037 49.2907 49.3052 49.3052  -10000  -10000 49.3057  -10000
49.3058 49.2964 49.3037 49.2908 49.3052 49.3052  -10000  -10000 49.3057  -10000
49.3058 49.2964 49.3037 49.2908 49.3052 49.3052  -10000  -10000 49.3057  -10000
49.3058 49.2965 49.3037 49.2908 49.3052 49.3051  -10000  -10000 49.3056  -10000
49.3058 49.2965 49.3036 49.2909 49.3052 49.3051  -10000  -10000 49.3056  -10000
49.3057 49.2965 49.3036 49.2909 49.3052 49.3051  -10000  -10000 49.3056  -10000
49.3057 49.2965 49.3036 49.2909 49.3051 49.3051  -10000  -10000 49.3056  -10000
49.3057 49.2965 49.3036  49.291 49.3051 49.3051  -10000  -10000 49.3056  -10000
49.3057 49.2965 49.3036  49.291 49.3051 49.3051  -10000  -10000 49.3056  -10000
49.3057 49.2966 49.3036  49.291 49.3051 49.3051  -10000  -10000 49.3055  -10000
49.3057 49.2966 49.3036 49.2911 49.3051 49.3051  -10000  -10000 49.3055  -10000
49.3056 49.2966 49.3036 49.2911 49.3051  49.305  -10000  -10000 49.3055  -10000
49.3056 49.2966 49.3036 49.2912 49.3051  49.305  -10000  -10000 49.3055  -10000
49.3056 49.2966 49.3036 49.2912  49.305  49.305  -10000  -10000 49.3055  -10000
49.3056 49.2966 49.3036 49.2912  49.305  49.305  -10000  -10000 49.3055  -10000
49.3056 49.2967 49.3036 49.2913  49.305  49.305  -10000  -10000 49.3055  -10000
49.3056 49.2967 49.3035 49.2913  49.305  49.305  -10000  -10000 49.3054  -10000
49.3056 49.2967 49.3035 49.2913  49.305  49.305  -10000  -10000 49.3054  -10000
49.3055 49.2967 49.3035 49.2914  49.305 49.3049  -10000  -10000 49.3054  -10000
49.3055 49.2967 49.3035 49.2914  49.305 49.3049  -10000  -10000 49.3054  -10000
49.3055 49.2967 49.3035 49.2914  49.305 49.3049  -10000  -10000 49.3054  -10000
49.3055 49.2968 49.3035 49.2915 49.3049 49.3049  -10000  -10000 49.3054  -10000
49.3055 49.2968 49.3035 49.2915 49.3049 49.3049  -10000  -10000 49.3054  -10000
49.3055 49.2968 49.3035 49.2915 49.3049 49.3049  -10000  -10000 49.3053  -10000
49.3054 49.2968 49.3035 49.2916 49.3049 49.3049  -10000  -10000 49.3053  -10000
49.3054 49.2968 49.3035 49.2916 49.3049 49.3049  -10000  -10000 49.3053  -10000
49.3054 49.2968 49.3035 49.2916 49.3049 49.3048  -10000  -10000 49.3053  -10000
49.3054 49.2968 49.3035 49.2917 49.3049 49.3048  -10000  -10000 49.3053  -10000
49.3054 49.2969 49.3035 49.2917 49.3049 49.3048  -10000  -10000 49.3053  -10000
49.3054 49.2969 49.3034 49.2918 49.3048 49.3048  -10000  -10000 49.3053  -10000
49.3054 49.2969 49.3034 49.2918 49.3048 49.3048  -10000  -10000 49.3052  -10000
49.3053 49.2969 49.3034 49.2918 49.3048 49.3048  -10000  -10000 49.3052  -10000
49.3053 49.2969 49.3034 49.2919 49.3048 49.3048  -10000  -10000 49.3052  -10000
49.3053 49.2969 49.3034 49.2919 49.3048 49.3048  -10000  -10000 49.3052  -10000
49.3053  49.297 49.3034 49.2919 49.3048 49.3047  -10000  -10000 49.3052  -10000
49.3053  49.297 49.3034  49.292 49.3048 49.3047  -10000  -10000 49.3052  -10000
49.3053  49.297 49.3034  49.292 49.3048 49.3047  -10000  -10000 49.3052  -10000
49.3053  49.297 49.3034  49.292 49.3047 49.3047  -10000  -10000 49.3051  -10000
49.3052  49.297 49.3034 49.2921 49.3047 49.3047  -10000  -10000 49.3051  -10000
49.3052  49.297 49.3034 49.2921 49.3047 49.3047  -10000  -10000 49.3051  -10000
49.3052 49.2971 49.3034 49.2921 49.3047 49.3047  -10000  -10000 49.3051  -10000
49.3052 49.2971 49.3034 49.2922 49.3047 49.3047  -10000  -10000 49.3051  -10000
49.3052 49.2971 49.3033 49.2922 49.3047 49.3047  -10000  -10000 49.3051  -10000
49.3052 49.2971 49.3033 49.2922 49.3047 49.3046  -10000  -10000 49.3051  -10000
49.3052 49.2971 49.3033 49.2922 49.3047 49.3046  -10000  -10000 49.3051  -10000
49.3052 49.2971 49.3033 49.2923 49.3046 49.3046  -10000  -10000  49.305  -10000
49.3051 49.2971 49.3033 49.2923 49.3046 49.3046  -10000  -10000  49.305  -10000
49.3051 49.2972 49.3033 49.2923 49.3046 49.3046  -10000  -10000  49.305  -10000
49.3051 49.2972 49.3033 49.2924 49.3046 49.3046  -10000  -10000  49.305  -10000
49.3051 49.2972 49.3033 49.2924 49.3046 49.3046  -10000  -10000  49.305  -10000
49.3051 49.2972 49.3033 49.2924 49.3046 49.3046  -10000  -10000  49.305  -10000
49.3051 49.2972 49.3033 49.2925 49.3046 49.3045  -10000  -10000  49.305  -10000
49.3051 49.2972 49.3033 49.2925 49.3046 49.3045  -10000  -10000 49.3049  -10000
 49.305 49.2972 49.3033 49.2925 49.3046 49.3045  -10000  -10000 49.3049  -10000
 49.305 49.2973 49.3033 49.2926 49.3045 49.3045  -10000  -10000 49.3049  -10000
 49.305 49.2973 49.3033 49.2926 49.3045 49.3045  -10000  -10000 49.3049  -10000
 49.305 49.2973 49.3032 49.2926 49.3045 49.3045  -10000  -10000 49.3049  -10000
 49.305 49.2973 49.3032 49.2927 49.3045 49.3045  -10000  -10000 49.3049  -10000
 49.305 49.2973 49.3032 49.2927 49.3045 49.3045  -10000  -10000 49.3049  -10000
 49.305 49.2973 49.3032 49.2927 49.3045 49.3045  -10000  -10000 49.3049  -10000
 49.305 49.2973 49.3032 49.2927 49.3045 49.3044  -10000  -10000 49.3048  -10000
49.3049 49.2974 49.3032 49.2928 49.3045 49.3044  -10000  -10000 49.3048  -10000
49.3049 49.2974 49.3032 49.2928 49.3045 49.3044  -10000  -10000 49.3048  -10000
49.3049 49.2974 49.3032 49.2928 49.3044 49.3044  -10000  -10000 49.3048  -10000
49.3049 49.2974 49.3032 49.2929 49.3044 49.3044  -10000  -10000 49.3048  -10000
49.3049 49.2974 49.3032 49.2929 49.3044 49.3044  -10000  -10000 49.3048  -10000
49.3049 49.2974 49.3032 49.2929 49.3044 49.3044  -10000  -10000 49.3048  -10000
49.3049 49.2974 49.3032  49.293 49.3044 49.3044  -10000  -10000 49.3048  -10000
49.3048 49.2975 49.3032  49.293 49.3044 49.3044  -10000  -10000 49.3047  -10000
49.3048 49.2975 49.3032  49.293 49.3044 49.3043  -10000  -10000 49.3047  -10000
49.3048 49.2975 49.3032  49.293 49.3044 49.3043  -10000  -10000 49.3047  -10000
49.3048 49.2975 49.3031 49.2931 49.3044 49.3043  -10000  -10000 49.3047  -10000
49.3048 49.2975 49.3031 49.2931 49.3043 49.3043  -10000  -10000 49.3047  -10000
49.3048 49.2975 49.3031 49.2931 49.3043 49.3043  -10000  -10000 49.3047  -10000
49.3048 49.2975 49.3031 49.2932 49.3043 49.3043  -10000  -10000 49.3047  -10000
49.3048 49.2975 49.3031 49.2932 49.3043 49.3043  -10000  -10000 49.3047  -10000
49.3048 49.2976 49.3031 49.2932 49.3043 49.3043  -10000  -10000 49.3047  -10000
49.3047 49.2976 49.3031 49.2932 49.3043 49.3043  -10000  -10000 49.3046  -10000
49.3047 49.2976 49.3031 49.2933 49.3043 49.3043  -10000  -10000 49.3046  -10000
49.3047 49.2976 49.3031 49.2933 49.3043 49.3042  -10000  -10000 49.3046  -10000
49.3047 49.2976 49.3031 49.2933 49.3043 49.3042  -10000  -10000 49.3046  -10000
49.3047 49.2976 49.3031 49.2934 49.3042 49.3042  -10000  -10000 49.3046  -10000
49.3047 49.2976 49.3031 49.2934 49.3042 49.3042  -10000  -10000 49.3046  -10000
49.3047 49.2977 49.3031 49.2934 49.3042 49.3042  -10000  -10000 49.3046  -10000
49.3047 49.2977 49.3031 49.2934 49.3042 49.3042  -10000  -10000 49.3046  -10000
49.3046 49.2977 49.3031 49.2935 49.3042 49.3042  -10000  -10000 49.3045  -10000
49.3046 49.2977 49.3031 49.2935 49.3042 49.3042  -10000  -10000 49.3045  -10000
49.3046 49.2977  49.303 49.2935 49.3042 49.3042  -10000  -10000 49.3045  -10000
49.3046 49.2977  49.303 49.2936 49.3042 49.3041  -10000  -10000 49.3045  -10000
49.3046 49.2977  49.303 49.2936 49.3042 49.3041  -10000  -10000 49.3045  -10000
49.3046 49.2977  49.303 49.2936 49.3042 49.3041  -10000  -10000 49.3045  -10000
49.3046 49.2978  49.303 49.2936 49.3041 49.3041  -10000  -10000 49.3045  -10000
49.3046 49.2978  49.303 49.2937 49.3041 49.3041  -10000  -10000 49.3045  -10000
49.3045 49.2978  49.303 49.2937 49.3041 49.3041  -10000  -10000 49.3045  -10000
49.3045 49.2978  49.303 49.2937 49.3041 49.3041  -10000  -10000 49.3044  -10000
49.3045 49.2978  49.303 49.2937 49.3041 49.3041  -10000  -10000 49.3044  -10000
49.3045 49.2978  49.303 49.2938 49.3041 49.3041  -10000  -10000 49.3044  -10000
49.3045 49.2978  49.303 49.2938 49.3041 49.3041  -10000  -10000 49.3044  -10000
49.3045 49.2978  49.303 49.2938 49.3041  49.304  -10000  -10000 49.3044  -10000
49.3045 49.2979  49.303 49.2939 49.3041  49.304  -10000  -10000 49.3044  -10000
49.3045 49.2979  49.303 49.2939 49.3041  49.304  -10000  -10000 49.3044  -10000
49.3045 49.2979  49.303 49.2939  49.304  49.304  -10000  -10000 49.3044  -10000
49.3044 49.2979  49.303 49.2939  49.304  49.304  -10000  -10000 49.3044  -10000
49.3044 49.2979  49.303  49.294  49.304  49.304  -10000  -10000 49.3043  -10000
49.3044 49.2979 49.3029  49.294  49.304  49.304  -10000  -10000 49.3043  -10000
49.3044 49.2979 49.3029  49.294  49.304  49.304  -10000  -10000 49.3043  -10000
49.3044 49.2979 49.3029  49.294  49.304  49.304  -10000  -10000 49.3043  -10000
49.3044  49.298 49.3029 49.2941  49.304  49.304  -10000  -10000 49.3043  -10000
49.3044  49.298 49.3029 49.2941  49.304  49.304  -10000  -10000 49.3043  -10000
49.3044  49.298 49.3029 49.2941  49.304 49.3039  -10000  -10000 49.3043  -10000
49.3044  49.298 49.3029 49.2941  49.304 49.3039  -10000  -10000 49.3043  -10000
49.3043  49.298 49.3029 49.2942  49.304 49.3039  -10000  -10000 49.3043  -10000
49.3043  49.298 49.3029 49.2942 49.3039 49.3039  -10000  -10000 49.3043  -10000
49.3043  49.298 49.3029 49.2942 49.3039 49.3039  -10000  -10000 49.3042  -10000
49.3043  49.298 49.3029 49.2942 49.3039 49.3039  -10000  -10000 49.3042  -10000
49.3043  49.298 49.3029 49.2943 49.3039 49.3039  -10000  -10000 49.3042  -10000
49.3043 49.2981 49.3029 49.2943 49.3039 49.3039  -10000  -10000 49.3042  -10000
49.3043 49.2981 49.3029 49.2943 49.3039 49.3039  -10000  -10000 49.3042  -10000
49.3043 49.2981 49.3029 49.2943 49.3039 49.3039  -10000  -10000 49.3042  -10000
49.3043 49.2981 49.3029 49.2944 49.3039 49.3039  -10000  -10000 49.3042  -10000
49.3043 49.2981 49.3029 49.2944 49.3039 49.3038  -10000  -10000 49.3042  -10000
49.3042 49.2981 49.3029 49.2944 49.3039 49.3038  -10000  -10000 49.3042  -10000
49.3042 49.2981 49.3028 49.2944 49.3039 49.3038  -10000  -10000 49.3041  -10000
49.3042 49.2981 49.3028 49.2945 49.3038 49.3038  -10000  -10000 49.3041  -10000
49.3042 49.2981 49.3028 49.2945 49.3038 49.3038  -10000  -10000 49.3041  -10000
49.3042 49.2982 49.3028 49.2945 49.3038 49.3038  -10000  -10000 49.3041  -10000
49.3042 49.2982 49.3028 49.2945 49.3038 49.3038  -10000  -10000 49.3041  -10000
49.3042 49.2982 49.3028 49.2946 49.3038 49.3038  -10000  -10000 49.3041  -10000
49.3042 49.2982 49.3028 49.2946 49.3038 49.3038  -10000  -10000 49.3041  -10000
49.3042 49.2982 49.3028 49.2946 49.3038 49.3038  -10000  -10000 49.3041  -10000
49.3042 49.2982 49.3028 49.2946 49.3038 49.3038  -10000  -10000 49.3041  -10000
49.3041 49.2982 49.3028 49.2947 49.3038 49.3037  -10000  -10000 49.3041  -10000
49.3041 49.2982 49.3028 49.2947 49.3038 49.3037  -10000  -10000  49.304  -10000
49.3041 49.2982 49.3028 49.2947 49.3038 49.3037  -10000  -10000  49.304  -10000
49.3041 49.2983 49.3028 49.2947 49.3037 49.3037  -10000  -10000  49.304  -10000
49.3041 49.2983 49.3028 49.2947 49.3037 49.3037  -10000  -10000  49.304  -10000
49.3041 49.2983 49.3028 49.2948 49.3037 49.3037  -10000  -10000  49.304  -10000
49.3041 49.2983 49.3028 49.2948 49.3037 49.3037  -10000  -10000  49.304  -10000
49.3041 49.2983 49.3028 49.2948 49.3037 49.3037  -10000  -10000  49.304  -10000
49.3041 49.2983 49.3028 49.2948 49.3037 49.3037  -10000  -10000  49.304  -10000
49.3041 49.2983 49.3028 49.2949 49.3037 49.3037  -10000  -10000  49.304  -10000
 49.304 49.2983 49.3027 49.2949 49.3037 49.3037  -10000  -10000  49.304  -10000
 49.304 49.2983 49.3027 49.2949 49.3037 49.3037  -10000  -10000  49.304  -10000
 49.304 49.2984 49.3027 49.2949 49.3037 49.3036  -10000  -10000 49.3039  -10000
 49.304 49.2984 49.3027  49.295 49.3037 49.3036  -10000  -10000 49.3039  -10000
 49.304 49.2984 49.3027  49.295 49.3037 49.3036  -10000  -10000 49.3039  -10000
 49.304 49.2984 49.3027  49.295 49.3036 49.3036  -10000  -10000 49.3039  -10000
 49.304 49.2984 49.3027  49.295 49.3036 49.3036  -10000  -10000 49.3039  -10000
 49.304 49.2984 49.3027  49.295 49.3036 49.3036  -10000  -10000 49.3039  -10000
 49.304 49.2984 49.3027 49.2951 49.3036 49.3036  -10000  -10000 49.3039  -10000
 49.304 49.2984 49.3027 49.2951 49.3036 49.3036  -10000  -10000 49.3039  -10000
49.3039 49.2984 49.3027 49.2951 49.3036 49.3036  -10000  -10000 49.3039  -10000
49.3039 49.2984 49.3027 49.2951 49.3036 49.3036  -10000  -10000 49.3039  -10000
49.3039 49.2985 49.3027 49.2952 49.3036 49.3036  -10000  -10000 49.3039  -10000
49.3039 49.2985 49.3027 49.2952 49.3036 49.3036  -10000  -10000 49.3038  -10000
49.3039 49.2985 49.3027 49.2952 49.3036 49.3035  -10000  -10000 49.3038  -10000
49.3039 49.2985 49.3027 49.2952 49.3036 49.3035  -10000  -10000 49.3038  -10000
49.3039 49.2985 49.3027 49.2952 49.3036 49.3035  -10000  -10000 49.3038  -10000
49.3039 49.2985 49.3027 49.2953 49.3035 49.3035  -10000  -10000 49.3038  -10000
49.3039 49.2985 49.3027 49.2953 49.3035 49.3035  -10000  -10000 49.3038  -10000
49.3039 49.2985 49.3027 49.2953 49.3035 49.3035  -10000  -10000 49.3038  -10000
49.3039 49.2985 49.3026 49.2953 49.3035 49.3035  -10000  -10000 49.3038  -10000
49.3038 49.2985 49.3026 49.2953 49.3035 49.3035  -10000  -10000 49.3038  -10000
49.3038 49.2986 49.3026 49.2954 49.3035 49.3035  -10000  -10000 49.3038  -10000
49.3038 49.2986 49.3026 49.2954 49.3035 49.3035  -10000  -10000 49.3038  -10000
49.3038 49.2986 49.3026 49.2954 49.3035 49.3035  -10000  -10000 49.3037  -10000
49.3038 49.2986 49.3026 49.2954 49.3035 49.3035  -10000  -10000 49.3037  -10000
49.3038 49.2986 49.3026 49.2955 49.3035 49.3035  -10000  -10000 49.3037  -10000
49.3038 49.2986 49.3026 49.2955 49.3035 49.3034  -10000  -10000 49.3037  -10000
49.3038 49.2986 49.3026 49.2955 49.3035 49.3034  -10000  -10000 49.3037  -10000
49.3038 49.2986 49.3026 49.2955 49.3035 49.3034  -10000  -10000 49.3037  -10000
49.3038 49.2986 49.3026 49.2955 49.3034 49.3034  -10000  -10000 49.3037  -10000
49.3038 49.2986 49.3026 49.2956 49.3034 49.3034  -10000  -10000 49.3037  -10000
49.3037 49.2987 49.3026 49.2956 49.3034 49.3034  -10000  -10000 49.3037  -10000
49.3037 49.2987 49.3026 49.2956 49.3034 49.3034  -10000  -10000 49.3037  -10000
49.3037 49.2987 49.3026 49.2956 49.3034 49.3034  -10000  -10000 49.3037  -10000
49.3037 49.2987 49.3026 49.2956 49.3034 49.3034  -10000  -10000 49.3037  -10000
49.3037 49.2987 49.3026 49.2957 49.3034 49.3034  -10000  -10000 49.3036  -10000
